solver_type L1R_LR
nr_class 14
label 0 1 2 3 4 5 6 7 8 9 10 11 12 13
nr_feature 4999
bias 0.000000000000000
w
0.7280074498239930 7.037889668013896 -4.054773405151657 -8.297044639249565 -1.043987385183689 -0.7956360604342800 -3.097228272247201 -3.008356052107276 -0.5465177844451076 -1.237898821061270 -0.7585020470973571 -6.733154169611999 -2.133318592479972 4.644806029116539 
2.270787737577631 -2.762050612145557 6.185937688250591 1.436922427716378 -4.793197037768410 -3.581362630245552 -0.6221294509936216 -0.5045737520284794 -1.473809461192483 -9.316161991813964 -0.7676431985384485 -10.04952014662917 -2.905234243400373 0.1262985234961140 
2.403121574152277 -0.3471965916998098 -2.719100422413198 2.009739777818048 -8.084370417247847 -2.505803900926348 1.905369274271866 2.913993325840519 -1.195170627586080 -3.041029325697406 3.781531629239748 -4.068895560854885 -1.489487374443513 -3.081045474437912 
1.057283147768798 -5.800541622356111 0.1921914928125201 -2.811461612515753 1.532839242010391 0.3018542974870216 -1.422575259412207 -0.6902421293232857 -0.09590479514193327 6.654385364494069 -1.262780009655647 -1.826490005577363 1.342700924175879 -1.031719547541313 
0.6998399000944473 0.6128982014124149 4.032875644169063 -12.00288555777777 -1.743406041628207 -0.4146043881084273 -1.525945019051405 -0.4385852047871068 -0.08480557315037895 3.365556789841093 0.9072089372822932 8.334990237675198 0.5727868144650090 0.8439995439592138 
-1.332028526332973 -5.963924444299599 1.235481503439213 -6.013886450204940 1.076048702425010 -1.020457645242703 1.239495915752711 -1.034263651476509 0.5667584386390322 0.7467687543319810 1.606084625712734 -0.4199353386868900 -0.5444994294949669 -1.355769602706548 
1.966962358424862 -0.9139334383778095 0.7851887176483200 -13.19251252826278 1.665585000694549 -1.364394363415962 0.2843548996252192 0.8110377475837913 1.095391579053382 1.896131167544445 -0.03957550925217100 -2.230560036761147 -0.007982698508792610 -0.8745164078280819 
-0.09462823001149873 0.4849510656715064 0.5297970830269138 2.543182044528005 0.1080636826862201 2.815299234067516 -1.865725797142587 0.3641631644980448 0.3420987782902974 -1.397695522413587 1.897300612452435 -1.916205512322236 0.4783580332443403 -0.9001958427380915 
-0.8795126014586001 -0.01282519262118076 0.1997299521007421 -3.517846841789010 1.313052626370784 1.136378018915065 -0.7237918706043256 -0.8193149798816100 -1.242106081212499 2.845184739437459 -0.2992671277468771 -7.401540776316160 0.2417612879345085 0.7391186576038324 
3.216664625621112 -2.040938480274768 0.02978887824940937 -4.894591835662731 1.168455232164457 0.6175449689480820 0.7498472126937410 -0.2624771575270868 0.7197335184486101 4.026641845347697 0.1736691579217289 -7.446225888847462 -0.9590318449709808 0.5632604485167713 
4.439292493584340 7.403895661558712 -4.253868474866949 -10.33011587119642 -2.112461482122281 1.130197503309101 -3.508979373534215 -5.643293444184224 -2.371947739852983 -0.6253084135152586 -3.015273545952662 -0.1280167375474131 -5.812908662282081 0.6434673589050669 
0.5877660301490247 3.329081047434414 -1.327693294494304 -8.252144150755527 -2.874659802561600 -2.048597467297805 4.237395584407240 -0.6424685807137587 -2.074758205754381 4.921516909411203 -3.027186523746838 -5.905839385362138 0.4412630642881831 -0.2998475564942495 
-0.8919608646363557 2.360505489372573 1.547521089925191 8.067399069233039 -0.8192527651195550 0.04150541583437853 2.619927626294915 -1.259174277011443 0.4328011688140655 3.877213472931561 -0.08465202454202482 8.444129076389855 1.076161215756424 -0.8895206079983247 
1.812861775328834 -11.22983997557495 -0.7086792815626335 0.07046783430483661 0.5879881095765779 0.02973626195617584 0.2409288233657458 0.3439196626744000 1.503208561225451 1.603922036191317 -2.003597129883943 -4.396763157637839 1.430981987624324 0.4176996393178234 
-0.07541227729405964 -0.9699097318710044 -3.588145200285906 -2.305594135543664 -1.817939773738474 0.4749655140315824 -1.863098019828099 -1.226457605292138 0.5890956935099559 -1.576865258515884 -0.2461227940605890 -16.00810117443124 -1.483150671662826 -2.657262319814199 
-1.136059414460306 -6.360521764868498 1.052614871831116 -0.6097041847018422 0.9915304652651442 -2.652293415471692 -1.220997594847679 -0.1223742450498758 -0.1421458883360655 -0.9449093249270197 -0.7427155678569483 -12.06012880742597 -0.6630337581488774 1.018739878805408 
-0.5182083970830360 0.4170913350452860 -4.095613569682383 4.111078423441597 -4.255128625306680 0.5723202024420488 -0.4513538160825338 -0.6070558746075460 0.1872285332391199 1.032841364390007 -3.898073393424057 0 -1.945294686639765 -1.206300601550470 
-1.699039898716178 2.499193104593306 -0.8573467273529773 3.270916386616535 -1.278827621970116 -3.254531246445638 1.718696698570561 -0.7792011285151532 0.1531328769217935 2.799447985122779 -3.800915190661471 2.437895945149980 1.293084923745991 -0.3168160945821758 
0.5387923264406514 -3.459321804861930 -0.8704739560394753 -8.240673874751899 -2.150336541537873 -6.723579949211468 -3.228001621595610 -0.8648920509890442 0.8139087762407904 -0.9634911485206017 -1.569470574162004 -4.125140329206085 -0.2459357736925235 1.104304753564576 
-0.02489954296690616 -2.627331765604787 1.362785714993767 -7.327299439387954 -2.119366324024694 0.6944627106236166 -7.935345502463024 -0.2441419443790633 2.801687896605593 1.595302825624765 -2.379479712937227 -15.31534285788066 -1.088239887312896 -0.4722423006305926 
3.019353765311620 -5.655633917782065 0.6759999078527497 -6.195867285189761 -1.746097263384034 -1.700726169867731 1.759893130326027 -0.7105228388823371 2.288989043762912 -0.5618523461808325 -0.5164558361680767 -7.006728098086989 -4.231707011995217 2.531794246910927 
3.249801234176950 0.2907532008963568 -0.08429580059895811 -0.5690771600916343 -4.776459592817201 -1.085039075114013 -0.9164058869129021 1.565359464849369 -1.288228514420423 3.285907115866180 0.03971959494630348 0.8521056017827653 -4.056367104066851 -1.813700620825606 
-2.524866948645290 -3.899751632305827 -3.547602984799445 -3.104043309688599 -2.555163217446437 -2.437168354785553 -1.065789355074790 -2.494198196952274 1.302415296009942 -0.4462845542154985 -2.974148729741932 -9.438507389729619 -2.934824147215105 2.611197766113960 
6.333162857873222 7.837433550869317 -1.340149535339243 8.566232366617356 0.7559389193608380 -2.215753899787699 -2.823758935321792 3.990001672097539 2.564484545815223 5.236116044210710 2.106420388801775 7.437398187690621 3.126261021805959 -2.157855004819983 
-1.961939383767892 -2.108561835951436 -1.032959080824654 -11.37131470203633 -3.223753201092850 -0.04644027056629325 -1.324324533693223 0.2939382846483548 0.4254651333884316 1.532310368641123 -2.877719965271878 -6.072829546084201 3.078679494877852 -1.972083612869458 
-2.175940688420554 0.1552645196276778 -2.862529434182232 -17.64173365920865 -0.2461051626735887 -6.096195794550638 1.423707763435119 -0.2162777072641698 0.7803091551923892 -1.806421011626898 0.8579276796061043 3.551445901945998 -2.579806105741943 1.516730681175851 
-1.804599553158023 -5.402389988052102 -5.489996515478280 -1.372649387233921 3.220581866111604 2.320732524496112 1.196655451603067 -3.009085399943925 0.8855355670052949 -0.4535882745933692 -5.718693517576734 -20.72202677221412 3.562892812639640 -2.535681510805810 
0.8163543024479043 -1.683679793403560 -2.115167334960258 -1.532077128890224 -0.1388410002104050 0.4931621649342255 -0.1634731153649773 2.204644564467408 1.007904377154353 2.361323487542485 -1.998532765428613 -6.084568525759876 2.614148632568312 0.2891994866628712 
-4.234674614356038 -0.6090358070823593 -2.087831908554403 -16.01653033571461 -1.213689395717505 3.564541843545682 -1.817290227509010 -4.813036804701720 -2.967108074544389 -5.626200199278725 -8.293432401473176 -4.048619312901088 -0.9415063815983016 0.04507252225229280 
0.1814001626058845 -0.8227275043827710 -6.643925698363268 -1.489220989750589 -1.650271667172617 -2.925176948031098 3.793502080866706 -2.603642979659298 -2.061827843233390 1.282231526649226 -6.661873505608972 -0.1938290668442985 -1.677033560041680 -1.797204422295647 
-2.966862090592697 1.786221211137961 -0.7410497450216394 5.548728602558324 -1.103858147814987 -1.304409635745773 0.8477260116506842 1.116145216086382 -0.4384767150484373 -6.070084837841121 2.184565561685170 2.040219346433004 -0.2314552659643063 -0.009762079108963595 
-1.088019585130159 -4.803766066210306 0.1407786550239761 -2.436078282979403 2.206077108744355 2.514274110015944 -0.8604003758021017 2.103222066076310 -0.5519097945724464 1.367621920865988 -1.964429761039922 -0.4995245250651506 2.435217128231206 -1.246511444968892 
1.797374604434967 -2.797935627939445 0.1468774680471290 -8.744963690962367 1.364876764333485 -2.774471697305467 -0.2186647203265205 -3.230216974426926 -0.03898133200304045 2.463045428796676 -1.246175965907206 3.009562619958357 2.090409041394357 -0.3919271256729142 
-0.1635217025276192 -0.4067297244206389 1.739838170940884 14.83644363879024 0.1142189270764755 1.716679449588656 -2.868211202091487 0.7721590294060275 -0.8022245224441411 1.428945257383218 -3.539946605298660 16.34726109375598 1.316861162194274 0.5757643465923002 
1.065099003884332 -1.382538703223173 0.5540559919143204 -4.344351998593819 2.592209427718367 1.241687276871995 0.4842408257005499 -1.404529994387802 1.231042511990321 -3.005033902200863 -0.07134793670907139 -11.66603325609370 -1.114653763595327 0.2533207215785138 
0.7955985383454911 0.6324621272350723 -1.360257794528437 -12.51935787887846 -2.865948867999865 -0.9341966264330545 0.6288715733156706 0.6134958116694578 -1.432331895596771 0.6647786804672802 -1.280823660413050 1.323844525922427 2.027643749409401 -0.08987830008821487 
0.9914779520493856 1.870444854872128 0.004682669922447660 -7.457933662974634 -2.364749673944616 -3.246840196007556 -0.7538954064738093 2.091330468774713 -0.5294986852630007 -0.6044623210342587 -2.441233013344358 1.594904297706405 -0.2980814248961940 -2.189258419121534 
1.503321917776881 1.478570079630708 1.867278258783689 1.614191156767684 -1.785397126947694 -5.396928531389464 -3.457605853747104 -0.1088558125266816 1.625606196180773 -0.3762549871576100 -3.871646257004674 1.885043176221159 0.5634073264960826 0.2774447383402774 
-5.051837462901139 0.2555904157202494 1.736542666398103 -8.667245302969544 5.270585780376423 2.455517618173347 -0.2050167200210272 -0.2174188251599855 1.646382004082511 -2.496374976566124 -0.3040639664929485 4.349080429245237 -1.442075762506086 0.8220184033209752 
2.987880016145875 -3.222952607374343 -5.806723616133706 -4.901577863175458 -3.643897146927750 -2.421122657030291 1.107599084861388 -0.05083469451608193 0.3045771237954446 1.081373358250067 -3.753648526226060 4.791525742609959 -2.675187740918482 -1.437910706209731 
-1.886916901963960 2.161545048629241 1.053997297459005 -6.735927935277903 -0.05004745024446175 0.08830580602798069 -0.6092776082728087 -0.5371284421296172 0.5578815960204010 -0.02450719931045376 -1.934957042995464 3.294321266891620 -1.609990543191435 0.9078328477162500 
1.591625487412452 -3.973382416088541 -2.351218122072520 -2.459515840011603 -1.005102714962000 -1.742207051380750 2.479756784441001 -0.3384304609366531 0.3347318606763954 -2.641357565215485 -1.626282717241049 -6.622107394740215 -0.8494194158612568 -0.08014837159428537 
3.115276023815038 3.353534212220474 0.3954871980406264 0.4644237313576819 2.085603128045214 0.6121553627560335 -0.2400271682339354 0.4773134766265815 0.7585590920309384 1.653615222476365 -0.1109194746642347 6.537774580376367 0.8796263474558778 -0.1947392553326443 
-0.7403096546754999 0.1826207773296089 -0.9757212767900106 -4.908744658870524 -1.241383730729334 -0.7780762980203539 -4.295206976173310 -1.334737347578532 0.3982249962708667 1.136695524741047 -1.997429620570747 2.299942181964467 0.8600195014416108 -0.2483578415493636 
0.2303623683531981 -1.195717923671018 -1.543080791881330 0.5157172931839283 -1.376955281284493 0.8186589040093776 -1.214873221507859 -5.446951352985396 -0.6905183079318225 -6.165946051094775 -2.889673404826511 -2.477503902209655 -3.005029070405133 -1.772731966074267 
-0.2105281166297169 0.3570868156108676 3.061655544310170 5.596897793426355 -2.925292633078485 0.5223511452765888 -2.377929603290524 0.03802075329615275 0.1792211352827454 -3.233447811340919 -0.6047407744775086 3.674947742517459 0.1467663154223905 -0.1208591352504175 
-1.806408672896072 -7.184602694206058 -1.775923100771916 -4.856344118963798 -2.833468809547460 -2.398492572318270 -0.9459295224515751 -1.264251101289817 0.1780797078240644 0.02445988088313825 -1.122409372746632 3.069596859431041 1.748065036083144 0.5206079983164489 
-4.435043271236783 3.811045837280707 -4.603810862937984 -1.814048724437034 -1.702361080235538 -4.032304889145814 -5.363168757927906 0.8357504361820196 0.2127520170685036 0.7054669724165552 2.006847651076590 0.3817091221910099 -0.1926368478198988 -2.525017439862742 
-1.326937321000690 0.3823834699591449 -3.667258795768463 -14.77360530154917 -0.7922045299221081 -2.255683019346177 -2.769255634814362 -12.06365449833278 -1.033865288570286 -13.60405650863011 -1.701505734152022 -5.531989979806361 -1.639101972401764 4.111955909171398 
1.235473705763679 -1.595327550065246 1.963116408521065 2.032015035143257 0.2804371752248376 -0.1800402171876733 2.306296193970855 0.2928769650914446 0.05881562114254632 5.421318009731023 -0.01864679015560428 13.81447698324677 2.598749954860236 2.570343654607560 
-0.5242155081969027 -0.4182702143428462 -2.209601061782133 1.281215916461061 -0.8544526310486864 -0.6533716342208534 0.6898731278448534 -0.1144932428458536 0.1106350296836177 -0.8180905476225075 2.069389812138757 -1.298736273340831 -1.000096334056232 0.1205390788742619 
-0.5146949185437405 -0.6942092211690578 0.6235270846163117 -0.6565714991854359 0.1677751419504874 -0.8969869602553511 0.9809885555343745 0.6876064226192102 -0.4526154310843981 4.243102799786201 0.5213816530749324 1.877251679776782 -0.7273910740001573 -0.3862743127860577 
0.5013599978389163 -1.056613751841008 -0.2238531351302582 -2.849450995028854 -2.167629470161023 -5.439103282936094 0.9166351080125132 1.466235501676525 -1.189556176175316 -2.330637491247544 -3.283157961465957 -9.220795702130630 0.3290889817729299 -0.5665905736734582 
0.1708156317450766 -0.7798715465799959 0.9505238176804625 0.8955202735500144 2.253733423920159 -2.359241050410462 -2.118334926716962 1.847316171860535 -0.2515681148187058 1.325360146612296 -1.002234923979810 2.447337419898745 -0.8106962610557487 0.6669674221853570 
-0.5654116280249907 1.919202391745478 -0.1399228476646874 0.03566006512703104 -0.03129793664492689 -3.373410068410699 -1.072708876711876 4.281679932168895 0.9831409412589450 1.186467179196850 -1.493902106940045 -2.912429089113983 0.05797366133086015 -1.254653974617483 
-0.2422492090669587 -1.053730712049690 -1.956693960551018 -4.759878717185365 -0.2007148026814630 0.6519661415051501 -1.785410158166047 0.01543779741429579 0.2490800849183419 -2.014433760515286 -0.9763008922038107 -1.395070866763129 0.04800491829272893 0.2528142807362794 
-1.275872755369005 -1.655972239713078 0.03132839219129953 1.376935551886374 2.235484960544656 1.167483076430942 -1.137930359508204 -0.7918645954306196 0.4039894389999284 -1.323067641337760 0.7123727925880851 5.674612158299752 -0.8924731278771068 0.01424309821746891 
1.494267101324026 -0.5490274868477473 -2.216204020280202 -6.242157482875054 0.5094834083368618 1.458891323151230 0.1277304261245841 1.202215362491220 0.3087506203299237 -0.7607987623436936 -0.5920070295232135 -2.243866209337267 -0.7240082869995246 0.6823895536882288 
1.847358011000890 -4.014542160395825 -2.683331452954520 6.709117354460706 -2.593551090697879 -1.989032773316131 -2.628590001579215 -1.240896883202017 -2.097352114857551 -7.046985241283049 -1.472842647861250 -4.524346545312137 0.04036893308003578 -0.7381614767526604 
1.394391314056746 -3.344070631164561 -1.075757902707468 -1.101035003682818 -2.088961389807887 1.757260565533767 -2.761575849940347 -0.6711452794492163 -0.6455815281246593 -3.067717289856452 0.03489452162424366 -2.829593964556811 0.7076658069973633 -0.2647615392311077 
-0.1532499601761724 3.087297507767578 1.215957279460259 -4.271599554069651 -4.681338296115627 -0.4248486726204510 2.944795151897468 3.106114769777314 3.115233025325844 1.146234051653803 -0.5600618907048730 -0.2637063586722357 -2.091804565553550 -0.9855181644036288 
0.7335682069172885 1.245452868806769 -0.2695886233780391 -7.145348905131304 -2.214378392414768 1.888820072784923 0.02555120999544946 3.170541811564865 1.710012357454669 0.7544371377110185 -3.383174544505511 5.092949556898753 -1.264163688264424 -1.311266487313910 
0.1381476407861896 -0.8584481175685421 0.1238920839677565 2.881591192211347 -0.3453536028108890 -0.5741930874466747 0.2511213560842440 1.666618890583624 -0.4321060486558674 -2.179020269934414 -0.9276319921794270 -0.9156072312298229 -0.8034425620973118 0.1530397845806213 
0.9690836472695921 -5.360420939132850 -0.4405293858902282 -1.596422077003566 3.461633775846235 1.756201379226461 3.095842079877093 -0.7054507693411507 0.1740898327492885 1.034332631776621 0.6840800855083143 -15.61382973973051 0.2067405676977513 0.3348606492212072 
-0.2278977959111375 -0.5141748392515444 -1.031332574024942 -2.573531784010684 0.3176991894632115 -2.540114943536076 0.3354141966396319 -2.202672246662731 -0.6600116729864457 -1.357197689375348 -0.9479554592401646 0.3381548927261423 1.595417847023417 2.030665312484334 
2.329846783401411 1.391570027165306 3.866987773556871 -1.443958367474200 -5.119807304714017 -1.828879328168942 -1.924149394483745 -0.7616933699945826 -0.5385237534537014 2.677683872968873 0.6368368189951472 -4.754708769020693 -0.3200908921780470 0.4896532784185456 
1.239911711084563 -10.18608978794208 -0.9880481251546179 -2.294309160353225 -1.568414009478924 2.830189926646183 0.7787740928581498 -0.8451120076530516 2.574745726453429 2.394073946654444 -0.8003258139339707 3.485177066647304 -1.802740941564761 -0.8934986161580424 
-1.067270534664977 1.323526001944682 0.06941940389640280 0.1976746665428686 0.5812258820953575 -1.052340140893354 1.240217803145007 -0.8973892705124467 1.662739661994075 0.5973819025332583 0.3206051928449846 -3.562014777559922 0.4364703778124933 0.8824341865100180 
1.332762361273648 -7.470612882315757 -2.374125389645104 4.906198320894342 2.283756222906181 -2.159263681875476 1.433760287176588 0.5260159679543608 -0.5367965511781287 0.4759199719777760 -0.1783731514110878 10.18722214172274 0.5693607512814319 0.8177958771287706 
2.587581456556662 -5.402889827164349 -1.495474304849711 1.403873242036337 1.805378578410372 -2.019595251530129 2.044028083044684 -1.471924255486270 -0.8878087787982517 -4.900952353873579 -1.110988466678586 -0.1192085749036843 -2.704756349814708 -0.3326118368608986 
-0.6030339174125905 -5.412345209789475 2.133647180955695 1.118695556800101 1.458887886669066 -1.871240889255019 -1.647155752941166 1.696140208323827 0.2989815609261614 -0.9642494681226470 -3.439211054916277 0.2429804912461228 0.2464481848840131 -1.726681800616190 
-2.911866419420303 4.313546552868015 2.750138814895663 -3.534479684355661 -0.4049761740286720 -0.4760227955871044 0.5814052143080518 1.454602796237696 -0.08721905573935600 -0.7507097926855475 -1.530217454117662 2.165231539917163 -0.2608925640502844 0.8316501666566711 
1.434715128268252 -2.430116934782180 -5.394203427413044 -6.802881184618142 -2.976939832448163 -1.796824778984317 -2.228409378737926 -6.156696876839325 -1.306447909709969 -0.8350505294256713 -1.918790317665034 -7.583130569980533 -3.678627642448893 -1.521394369182293 
-4.217111022814636 -15.56559582780835 -6.341125501679757 -12.24377585010749 -0.7114561925655560 -5.709798035983678 -2.221505065956730 -6.527490551425073 4.366990774881423 -8.987960593823220 -5.783773372859709 -7.026393843829022 -5.723122604157793 -3.603036703151524 
-2.299414256544166 4.870833220834967 -3.327164893985310 0.7259502103569840 0.9889861347502970 2.249694799182831 0.8077941733352422 0.9241593906884626 0.2250632280257074 3.054226325635222 0.8579869472403278 -0.1583284637123581 0.8822967093617384 -0.1784832460114796 
2.225808152450788 -1.288806072202243 2.976519368852852 -10.59443873661582 -0.7856460139937086 -0.1634483174460981 -0.2270928358914795 -1.592025498702590 0.7490164347795247 -1.426298633121858 0.08211120503357586 -2.641571511954080 -2.981640086762907 0.9499135524373697 
-1.076473994418251 -4.617082684522726 1.139410531873309 0.8598731136984836 -2.761562382787928 1.026298284685235 4.342934276039059 0.2493707786601558 -0.2284270832934469 2.379649999887767 -0.9762230258009426 -4.478467901884164 0.1522192368829860 -0.2870507810442705 
1.504631074745633 2.330597573842978 -1.679843057702479 -7.461105969918084 0.1037382753979374 -0.2964748722257346 -0.03149972993762885 1.747729276324224 -0.4887646852264690 1.906767939182473 1.233626770971000 -4.149859266401322 -2.584347052031323 -2.958469446009063 
-2.023004270552574 -0.08266032578962632 0.2894848509409023 -7.118887093028139 1.974800991862170 0.8264087917300109 -3.169370863087595 -1.252135351657739 -1.996881900978424 -1.415841206753700 -2.466752952561865 -5.472625152285391 1.751501804157286 -0.1013559337406934 
-2.795918555214235 -6.756886701550910 -3.263400196470300 -7.405192683085157 -11.91026607029131 -1.507802605155656 -3.020055006958918 -5.213664286464468 -1.616183375389973 -13.68022838024789 -2.510467628523806 -0.3686448757823009 -4.923890956097496 5.649099723295464 
-0.01100724979007126 4.933598009056660 0.2167395193793644 3.814795381261264 -3.150455963674522 -0.02123676005357938 0.7905193448412943 -1.661363894014535 1.050180581655373 -2.110406309917754 -1.987427163113368 1.303468716669107 -0.7690872733624328 1.044309278920949 
-0.9502204473270145 3.089275067695845 -1.675134765290518 1.934098019217245 1.727387478668651 2.266767808000396 2.917873370816230 1.393957965403714 -0.7666787218040072 3.848379162461178 0.7168297704729576 4.994442642169788 1.316582696958592 -2.160519029944896 
-0.3299558311927286 -2.613348184721462 -0.1682066434739307 0.1643493020770062 -1.870067589896322 -1.305775175159414 -0.8021736620245643 0.6106829932816932 -1.892464578319075 0.3488951196707408 0.1621413545020709 -0.1682337755466947 0.4987295354516492 1.595465963489698 
-2.648379805357076 -1.736145935267518 1.568036559752569 6.905455245722849 -1.944550836071636 -3.265618559532115 -2.457429072090840 -0.6143666517136300 -0.7379464854289276 -1.759516994884575 -3.906367139590140 -15.42739654883446 0.7409185124767590 -0.6923732667157716 
-1.089716965010597 -3.298365980704226 -1.531952480024545 -1.370514791489423 1.931113435524074 0.1385130360947940 -0.9894759007229713 -2.284123725500523 0.4527411804208014 0.8652774806026751 -0.7918586195173152 0.2824062754502796 2.731676993855337 0.05075037598041254 
-1.548883536607524 -7.446698505552111 -0.7399986977856805 15.39395046581309 -0.2459447333718777 -1.022535554808213 0.7486186424460056 -1.226878075037376 -2.637243823764236 6.929837100475810 2.009143259841860 26.07115123935123 -1.586537523928872 1.263486475729139 
0.8401267764034448 1.208711214324130 0.1003121401259281 -0.08973412802874078 -0.1606684230487412 -0.4983761516026934 1.336063756553823 2.791249842888887 -0.1342548086667028 4.473438307827953 -2.499348393420084 -6.227678006861186 -2.103168833187900 -2.266329108453236 
-1.896171742077524 4.122031621651672 0.6035734086160038 2.641501766365060 -1.122755897882565 0.6360347760099843 -3.267705187069414 0.8931000316753415 0.7996275829155131 0.3884534411861253 0.3344706268042079 -7.349907486380306 -0.4701342079939547 -1.242402844120021 
0.9056095308498731 -2.507113631922935 -1.049055768783008 -9.963021812560083 -2.475818003404322 0.8084764446576104 3.035154125351087 1.967921556013150 -1.149347735218922 -1.785073733024389 -2.451018165659201 -13.16981014877749 -2.230723052632404 -5.546739557669826 
8.586612609708386 -3.080724152825778 -4.565259410292535 -14.81025569366923 -5.436987124876843 -4.739915969270982 -8.372040599029605 -5.685273201886479 -1.418151184241189 -8.131545934423950 -3.050799161420065 -9.612038325401860 -3.185480795972799 0.7200106459825514 
0.6570444791612831 -4.737709093513192 0.4177803290213540 -9.935810054674004 1.700933448798276 -0.08453411066161280 2.056632670343307 -1.963970359240285 1.475639600657776 0.1841836716903261 -0.8698962402104238 -3.500832786994593 0.6894958092395325 0.07107145717068800 
2.616964678000200 0 -1.374292927958752 -4.750627112400309 0.1765670857219348 -2.385482936320728 -4.935026705795788 0.1981092162963732 -0.3152115978834397 -4.839849096069401 -2.441496270882407 0.3568609164297583 0.4341063511161998 -0.4923167254264644 
-1.865278837228245 -6.270008078108935 -0.5490219629523535 6.923832672392066 0.5158461879498961 -0.6732664853999213 5.898437354840998 -0.1301953166780289 0.4489862877439377 3.535547044505023 2.312538093816070 -0.2856322888546002 -0.7796071733803600 0.8410196795144923 
1.877110655820367 -0.7365261847140205 1.009735441012752 3.907990733823291 -1.018481062902411 0.4721974577552468 -1.926051123081408 -0.6609251237514169 -0.06658956321529022 -0.3986754734268982 -1.540774187746778 2.208632292630053 -0.7614906577570182 -0.2808146128276288 
1.511353450987405 5.687976307344560 -2.461318914852311 -2.380646908578293 1.497019777372526 -0.1496353973259328 -1.671944116643517 1.175790550180291 -1.325402221082377 -1.214316825943668 0.02063085827525771 -5.045490040122619 2.410609737593382 -0.5052669599007428 
2.467534094343818 -13.44352254068543 -7.635619653417037 -10.70770970988051 -6.038512255988159 -5.864278241721758 -5.890637614586799 -0.6239833627234636 -0.7657966727480886 -11.65061803374200 -2.637055831725288 -16.28522539470542 -8.421032396158160 1.873641309215562 
-1.551867170910138 -5.899029798576278 -3.684508938481216 11.04640137946434 -7.609943522248081 -2.373588500293961 -2.733410350174943 -1.556833280830639 -1.162561931188895 -1.116623870121672 -1.775374258879473 -6.827730507913147 -1.740810175813892 1.508009138881801 
-0.3953552044354731 14.82341001722280 -1.080795525706062 10.30619484058652 3.530984240591394 2.553576108445234 2.383498781883847 -0.1723790225501370 1.666101531070397 5.378370850475026 2.680042212573671 13.60427797895699 -1.115307627180892 0.7744724474755618 
5.381055951757022 1.467069923892960 -3.161076127333558 5.874926025220964 1.264562288286184 2.621947921211705 0.5527927500977138 -1.633668871480361 -1.424539441590049 -1.157295286704919 1.930934968484755 5.092533757285750 0.8423401611516325 0.7727461938319724 
2.258123930024370 -2.481284376259116 1.048637290649616 -3.530360712118660 -0.9052692918345455 -0.1660625036991802 -0.08629360371724410 0.04231165976270352 0.5422048258321096 1.129150270292840 -1.353985775020995 0.5690161918979385 -0.8628225155597522 -0.6343279456279183 
-0.8175371277223401 -11.45793846436171 -2.141808044110764 -3.705797192461120 -0.5185256888851555 -3.897413839153794 -2.266487639010166 0 -0.08395994049741057 0.1239201502306848 -0.9651826825545615 11.84534022357801 -0.5453072488866630 0.6772211898436560 
-0.2484310289593306 4.474155749813177 -4.446347864724502 2.851813606269373 -2.063635200193894 -0.9599075099162730 2.409836815313694 -0.9283363427871616 0.1687275947982106 0.2781052447582698 2.215008526802881 0 -0.5246287676059596 0.07792048556414236 
2.945250102138979 -7.145846838494069 -3.737317023349422 -10.18201965269189 0.1049931962816544 -4.564466126862619 2.151964207824361 -2.842358381575603 -0.6098981504800944 -2.546593616015741 -1.281105836218427 -1.212356355826248 0.8479039087441773 -0.3896086105308659 
-2.460220823786466 -3.092691968936083 1.673149327916954 -9.554152630888840 -0.4669583744293337 -0.05139404771654451 1.101819023738534 0.2237387315163846 -0.7781526891004943 -1.120724319935302 1.150417918314936 2.480189267588815 -0.2618131681507591 0.6665182169254754 
-3.232469954088307 1.804243083582184 -2.647730989546247 3.075786976553409 -3.387363986156255 0.4461371274114123 -3.336165479912853 -0.9634018873219029 -0.6248880560569670 -0.4537446157616841 -0.1173221890870831 -6.553383628545108 -3.310266989842260 0.6373541788059430 
2.228500649146934 -1.580108294297211 -1.468247911127993 4.985558497709388 0.7527079703446686 -2.199544777129247 2.697773468574889 -0.4881803634243672 -0.6453618137898584 1.646758115352093 4.029599702540470 -9.471296657743423 -1.354069441869312 1.172014931014840 
1.496989517258757 -2.429129198361381 -1.392594636434730 -2.685167171298830 -0.8232671955684443 -2.047716086456429 -2.411318733314940 0.1397202967354401 0.07464851619313735 -2.472074334395338 -1.199513729506389 -2.623959139328830 -0.5586542335420183 -0.4568066382313305 
4.667292288545828 -2.197515260308198 -1.276054473992901 4.211046456479720 -3.924447107059244 -2.368796813916970 -0.6188655759527512 2.288070468102497 -1.479396086300901 -12.42773837658427 -2.759511394926428 -1.149431215170398 -3.986000500478664 0.8520934352556637 
-4.408749616789907 -2.121682544425975 -1.544213839854002 -2.152688095051609 -3.266969053985506 2.491614150685425 -1.532391359383885 0.6773977195195219 -0.2249385354027798 2.762278561747516 -2.469876878786477 13.67830042710117 -1.995216220396459 0.3029876727746960 
-0.2753607340667186 -2.296034706298862 1.055951454632041 3.280015455022715 -0.8735746490201037 -0.9532643904779675 -0.6664262437812246 -1.187253881422782 0.2980816427433946 -2.384158882476714 0.2241374345451631 3.225381159061908 -1.753975978921445 -0.1839408588385805 
2.158181078353695 5.038789829501874 1.021211851495029 -3.822592216624845 1.850946960017406 0.2764477618027805 1.533919496544382 0.04461320554358830 1.507948688012533 -1.267653021655099 -0.4248123313496684 -1.849816017771304 -0.7911826346043778 -1.705526520119186 
0.8921529268059385 3.784174370057666 1.659904437551111 0.1988907682866644 -1.610575442969844 0.5010612719465346 0.6194152782043151 1.865195497142755 1.865456991983956 2.418169464728277 1.643704827967134 -17.55178639503062 -1.987925705441114 2.107459277186104 
3.335714393149377 0.6449709953212224 -3.739404364213313 3.372093121340926 4.196437165057189 1.580381124047991 3.115212883862267 0.9462212690955097 -2.271990321402734 1.136484751706578 1.514755524712883 2.234588351270024 -0.02117901948743087 -4.442283083951592 
4.820973017602316 -3.875782935601097 -5.760435858312743 -14.11771281390926 -8.270422739655778 -5.599621601533251 -7.676372579817701 -6.348541950475104 -6.141039591521655 -8.310424844106386 -4.931886587147725 -13.39990291467180 -5.991378296886592 -6.838081117227435 
-0.6481457953857946 1.169161179821346 0.8244021226692981 -4.500633027518131 1.363048684783178 1.490174774095341 -2.101967107222029 -3.783763319394013 -0.7768224707610913 0.6806454322402689 -2.938808237523975 -0.4974819281117116 -3.531732998558524 -0.02279809284552766 
-1.173084905132116 0.2627396137435045 0.6265171948711323 6.107666935532714 0.3030863068852530 -1.005133599415153 0.4937828701556782 0.9668622629837159 -0.2454058851097064 1.005229590894982 0.6095689933918160 -11.06294407962077 -1.577432687764639 -1.266665041031138 
-0.1261818505582535 -11.27099099749462 0.7360522673965757 -4.693254948046479 -1.025558238718730 -2.932526442100642 -2.768907491999960 -1.757465065648308 1.785772239980815 -2.110708906915199 0.8920120418725632 1.517111935046856 0.2524301799962322 -0.5750709635294003 
-1.380743690114194 -8.160986628185846 -1.277807025922509 -8.709544788670794 6.917978826675681 -2.837020653519065 -1.702793527978039 -5.341397689631491 1.993942544843186 -3.614580259504635 -2.435980364252664 -6.528844104743624 -2.183207303454662 -1.281680749057786 
-1.025571620012428 -1.913670769853177 -4.459964583427699 0.2479360000231305 -0.8218565574926794 0.7756665650249862 0.3469869504905249 -0.3665824774020328 0.2058552637578351 0.9196094217131298 1.149870308436643 3.496999007913228 0.07666586133803668 -0.9907891022127324 
-1.545204176294745 -1.073055526079402 0.4076611921853788 -10.76750551417436 -0.9778143588876845 -1.455465727301580 -0.7820336341596712 -3.094402973675169 -0.1143422557857557 -2.393574393600067 1.422150416708534 -4.724547124120612 -0.2077681176799422 0.1083454657344748 
-1.556543950583013 1.673651005004465 1.481868552664537 5.264892555413499 -0.6561863470967583 -0.7479611800651097 -1.205292218064314 -0.08149487065706712 0.5957180526972766 -0.6104618332133137 0.4957060997663078 3.783597835529508 0.2066297499142235 -0.3862416087227432 
0.03423937490833284 -4.452885353226943 2.459515314397859 -0.7601062139740344 0.2033503842179670 0.4248707666891630 -1.585418910699664 0.1734079885957809 -0.7144756904094451 2.734580764062228 -0.8085017842688470 2.975536261384087 -0.1053024320806538 -1.291097605240664 
-3.290868873670728 8.480095342843699 1.279783339461991 -15.15265248194107 0.6631925845359581 0.1039467876903528 1.599324372445413 -1.267486347076310 0.6889563981687680 -4.707141525988813 -0.4072655424735608 7.577618842698875 0.2682306787840010 -0.1426304611726783 
-0.3177106571641184 -0.1598171785224248 0.1922243712188086 -0.8009496450661032 -0.5218310775448810 -0.2167586216520540 -1.321330591651390 0.6043142966916453 -0.05495447641807814 1.637051011989647 -0.1170024366247909 5.587353400879183 -0.9424428125089944 -1.611391532657686 
-4.890882701466651 3.456519045911707 -2.331818188529674 -9.476977813622730 2.424775345465510 -2.665839966100053 2.155596667239037 -1.883116734709029 -0.8290357815777650 0.1798520970040227 1.934216826752572 3.804325000659418 -0.1198471148634679 1.418079750850807 
-0.8493628661363780 -1.918080322742939 -0.3011879325684140 1.433438780937078 -0.6741044196369638 -0.4314388183259923 1.899684599292497 0.1567815966249265 -0.5316587340918277 -5.841293371624485 0.4598159854658841 0 -1.050694418039736 -0.2852182220587813 
-1.077672794635046 2.958827254358135 3.013081766261859 -0.4716023696185990 -0.3316037965965090 0.2937588799805967 -0.9474710780090343 1.694650509334477 -1.950965480209352 -1.005514262524758 -0.6694369461646658 -1.390931367997308 -0.9085980682507756 -2.030710190004079 
4.584080576632517 8.032544070277405 -1.648892727460472 -6.632201961887875 5.070311307579013 -1.484486494054849 2.154270673428209 -3.142629679639343 -0.1230005989787040 1.577252443960605 -1.065254620309504 -0.1398467127806856 -3.588433402833091 -0.009000083132501030 
-1.370149418882077 4.338774005832492 -2.423152915864956 -3.058021402676534 -1.319638454340402 -3.338743946476478 -0.7185872338031458 -1.053120431434067 -0.5879905227340517 -2.239399532649600 -0.09982161700058972 -10.75753013805648 -1.953443306130015 -0.2154200182675878 
-3.139153793080782 6.714602861476094 -2.186989610427110 -1.569013283487241 1.519088456731071 0.9161847968147822 0.3400133746660808 -2.141872923707504 0.2233927087223428 -1.561687626995452 -2.769120212151041 2.022660617799191 -0.5778075256594005 1.782120471950307 
-0.02280586096547668 4.887243820685718 -2.377011104246886 -1.051477418271747 -1.064014416699057 -1.478726869481169 3.143065516167021 1.426920492867125 -0.9573047428470367 1.678789655634384 -5.129855864709132 0.3496500640371010 1.314226831098112 0.03818924509123589 
-1.161198066748635 -7.882330629808990 -4.364256102820539 0.08405052358494988 2.388689266407732 -4.959175115379400 1.726595507694356 -1.677896153363794 0.5020168007632789 2.634375771713489 -2.406799116205568 -5.547846461856527 -0.6076870051859075 0.8205289435047534 
-4.876767839586930 2.228938435142329 -0.4446669442074164 -6.724169602419780 -2.311842643538869 2.500025235301538 -3.798323088470468 -0.05596944978239946 -1.414602954903200 -0.6335826594116029 -2.102920719252141 -6.555427649110652 -0.1243069365600361 -0.5018708000722214 
-1.728165462227586 1.552873106198804 -1.367326920131696 -4.211864360006229 1.288993476468248 -2.303631361896011 -0.7812627789547624 -0.2487671970924060 0.3882659492075660 2.702073230275701 -2.566507261952212 7.521478442948862 2.239114321292267 0.5918595516609146 
-0.7578669515935833 1.293877595936915 -0.1950197508769926 -14.33500572713319 1.898616620423877 0.03575383671483030 3.035787490104904 0.1361588769867757 -0.4842331216938224 -3.406519864795178 -1.429477370901516 -6.773942037345219 0.4718958560223263 0.5995314876905965 
0.5168852259064027 -2.254598263818538 -1.649743699858733 4.539904601986378 1.365015182481612 -0.4629772958383906 6.017076402826762 0.7523906992527111 0.1647239560583059 3.341066623783742 2.135923081318451 -0.5150711876274419 -3.708639323724194 2.243160190607173 
-4.540487976806967 -3.505502967007637 -2.148013454255787 -6.532893301903339 -3.181636394361598 1.590454876327941 4.774614207587393 -1.833396768945709 -2.311402063134564 -0.8021075133905434 -0.3746496084370065 -10.86261686509167 0.3314243748344248 -2.415598781888198 
0.2084979001182937 -2.337086454809789 1.850072777514800 -1.561711391897115 -0.8866504798100696 -4.542294956312616 -3.771253220796381 -1.069562798890300 2.876364954370601 -2.944658711530557 -1.125041806205805 0.7523318028404125 -0.8816755130385605 0.7713442541302513 
0.2883818967812413 -3.224080348251625 -0.8748955847246733 0.9780265094879120 0.2064835260765298 -0.8976540168221836 1.329536162874649 -0.2759821848643743 -0.8192373313185852 -1.661530697772302 -0.7074618811152800 0.1977296206230383 -0.7045498848474541 1.402542211115431 
1.552302016088224 0.5604573888705584 -2.223078661850566 -4.929061727666449 -1.510234138007845 -1.387516415071126 -5.103709116395109 -2.204717284460935 -2.239798601463770 -5.684899037240106 -2.950096909387282 -1.419269273092530 -0.2514641781518769 -1.261553805921927 
-1.743290066233778 -3.829722156546526 -6.206120985583963 3.893559026054340 -5.896407465182374 -4.244986960033455 1.596554111509326 1.251167664874754 0.4993428440721630 -1.953670193418995 -1.797845369827857 -12.00222225990630 -3.954912265770016 0.07718023267798145 
-0.4415887961394591 2.535126983227534 0.1658015309635368 -9.521701107741361 0.5479429525522044 -0.4690402010944048 -0.5338411976918376 2.383205375446330 1.497166918296847 2.950620263450901 1.177014575043800 2.255347758297784 -0.2091004497906761 0.2688923973250542 
-0.3883414027194602 4.439865876879723 -1.707275075523745 -4.814511004504804 -1.158001288021105 0.6558286026413284 1.550824688594677 0.1319371246461135 0.5355188869689587 0.6989522496160686 -0.1025746366317444 -0.9428347232225733 -1.171014842169970 -2.293191392323694 
1.824519824968588 -0.7925781422839729 0.1728046261258383 -2.415236711837018 -1.391221075915716 -2.227069091911671 -2.945296974619874 -1.713375975410740 -0.5739495297447552 -4.006091234511066 -0.3054544675807492 -3.213954697302087 -1.479880412442043 -1.294546614741035 
-1.002341469921506 -2.212603966172526 0.2013920577525166 -13.80161140543488 0.9036725443564071 0.5503655237069648 -1.584785411455456 -1.546981238213579 -1.049814614524357 -1.073598454694935 0.9432842154010156 -10.65823272008975 1.447859101428711 3.192068800263724 
-2.003700799055538 -2.328160626559233 0.1905796239666667 -1.579666306773849 0.06067905676753485 -1.430478745345818 2.260883182552666 -3.314951758624844 -2.449372855681835 -7.405859683907495 0.2808733967306791 -6.473109108972884 0.1565399977882573 -0.1853366566845227 
-0.5920356100890047 4.913760863614638 0.5727477103207225 5.801081474792272 4.101010338850652 -0.5375287832365687 -0.4484441848356613 1.534842672083804 2.000327684364431 0.01531323896918135 3.595048490168194 -8.094734880530927 0.2907867188731415 0.1531624678998386 
-2.131833134926703 -0.8126842803065686 0.8345082896647974 8.405378538213023 -2.323759564933110 0.8859043570299598 -1.485569224709152 0.2626528345938978 0.5798882118772168 5.203251615248354 0.6551025654147281 1.797479106020333 -0.7377899108717500 -0.8874463221869001 
-1.430833525756315 8.574090810466526 -0.5131574318544390 12.68460464325727 4.085620939632730 -0.4812670834080672 -1.042960215486383 5.225688775182649 -0.2267870341948157 6.210042311671888 2.429259472519854 4.733398399026076 -1.688860315254241 1.424411236890925 
0.6513866356086251 -1.930964268575633 0.06139809136876354 -0.3098338394300494 -0.9335742643481746 -0.3891783247349943 1.680802170078135 1.029255161164159 -0.2425792891599799 -4.287822252847250 0.2491252409034518 6.832551139788071 -1.553703609213075 0.7454145171847709 
-1.777484607986424 -1.776788264628054 -2.130815609042105 1.160741876929256 -2.109015932727056 -0.3906219381444847 4.054274980934669 -1.217893219922116 -0.2826334541393248 0.8893330239369724 0.9115238433714637 1.570218522342590 0.08984733299013281 2.062726830495364 
1.115248934603933 3.236474000277143 0.8772194716933449 -2.674078399490598 0.4505622789707962 -1.003330259771109 1.821073015883765 0.8750267677866859 -0.6326074877755725 0.1056843452716247 0.5481244181304408 1.033050591090686 0.5547941817447052 -0.2067406701837318 
3.748723243127800 -6.500965415824489 0.8760527488707412 -9.453838601527037 -0.2386760300739217 0.3103153273457625 0.6845619215589236 -0.7450025393280699 1.054409506234878 1.091981607196346 0.05797826171978436 -5.858140972121376 -0.5992004743064634 -2.215287732402172 
-5.239685593916392 -0.03959906199176366 -1.262229661004975 -7.489077887820175 0.6313603319588716 -1.240723322861895 -1.142387480151859 -2.295003502854218 0.9532813774345272 -4.448419137047138 -1.523057942448027 -3.244719464494284 3.613837981968358 -0.7100232099292422 
0.2191114968012992 -1.839501783949624 2.485199805930161 4.153488528969130 0.4164779293711560 0.3832420720636529 1.210452298263224 2.537129345876452 0.9145958000800337 -2.980817634905779 2.406995269174487 -0.07081427596895080 -0.2215618632675552 -0.6451697449616045 
-1.903657531226957 10.18381320959706 1.001344423593302 -22.65518763606602 2.512661270749259 -1.906633177321352 -0.7202320184053882 -1.444910631681082 1.274549498434701 2.210947668562964 -1.208950646535824 -11.39544737080210 -2.078980998210580 1.072191635554547 
1.470274605138274 -4.499772419717036 1.504887173493499 3.172456015951391 1.187415991635684 -1.616453304110594 -0.6493664603893918 -1.152552724707870 -0.8384902363513997 -2.328993917076740 -3.691238080205288 8.898492696647029 -2.538155343675770 1.965314651375515 
1.815393820889619 -2.448804897525833 1.784693227118305 -3.997400569374973 -0.8903224566750573 -0.3902698685325376 -1.162137181667495 0.3226946473987425 -0.4658468170756675 -2.743899507071257 -2.246216751201556 -8.213391614304133 2.078920446099267 -0.03908805657702469 
1.461206296073470 4.558213471918869 0.2992568732937733 9.982746119236706 -0.02353038492405173 2.675667341586463 -0.8584859915153861 -1.232317148382378 -0.4088155236516242 -0.07932520520785019 1.187403924216370 2.232025342594090 0.4049054154156735 0.5568822218747099 
1.618496989225759 -2.176581125874139 -0.9861858774760395 -1.016810404343833 0.1467336467878040 -2.394118140874472 3.507579410941158 -4.329402803918984 -1.143075451260698 -4.944692898890018 -1.687243574338513 -4.537053346777782 -3.750721246642998 -2.346044562895689 
-0.09103776604630853 5.513359693322379 -0.6368193984448801 -4.720658648004878 -0.8382234027467887 -0.4123470801001609 -1.500872014819000 -0.1253018992822012 -0.8180990066769840 -1.166899431884811 0.1036026742273427 1.527087251351839 2.126016635341906 -1.089355118382412 
1.699715187613206 2.439474193017127 3.469566422681587 -1.887812449992706 4.501965773344699 -0.09593619162580760 2.439713650050702 2.349959543580760 0.1535023017000919 6.184732100247001 3.062074918500885 6.648774982221439 2.594403724560799 0.05242685449188596 
2.403775125671754 -0.6552029547379876 -0.9375882924725074 -1.545059540530807 -1.567873529758204 0.8366365757516930 1.287084821291271 -3.801072902045386 -1.353743102153575 0.2337059602821496 -2.443281850401202 -3.758882077917425 -0.6511377900469306 -2.651871010590574 
0.2311714131592698 -3.783507771022348 -2.795783537876439 -4.313909837367009 -2.060968721029041 -6.156959882920848 -5.270977369623080 -3.800280502232578 1.090488027427168 -5.339139105058242 0.08321229611019423 -23.27979239884365 -1.864303353804911 -0.6682607588424597 
1.996275810391669 -5.207900520753316 2.174179792234272 3.076565240485921 -2.167247606403786 -3.472121239848397 -1.603839695300149 -1.107049646694398 -0.3210023500197726 -6.396980973295036 -0.1225853499242214 5.817620802882969 2.415798759646517 -0.02927433087198669 
2.124364786417769 -0.6781638408247725 -1.023463401988630 -1.137612427316312 0.3493303277211843 -1.742671588633838 2.565295336283771 1.358260388637625 -1.540776881183610 2.009553269519351 0.6589074742059916 1.270466145106420 -0.4357049575307525 -1.661741629969799 
4.518986517588236 2.927208681591569 3.517463837223741 5.855053998731664 1.420589395243927 1.813477922711295 4.218354363082462 -1.896053862854357 -0.5415800430190141 2.032233937152323 -0.6855987490292417 -0.5828914144950286 -1.444771316503174 1.217971585409053 
0.9211387224551566 11.39288782479927 -4.972239455395560 1.194693845733266 -1.597000820060563 -1.465835156229467 -1.917659743114450 -0.7760191943523339 -1.926485985226793 -4.813168213085538 -4.277712892786948 -0.07004798530465206 -2.704533523968677 -2.719246168203943 
1.769775058520371 -8.534982648580530 1.526355210309523 -2.995439654507198 -0.2972714537199884 -0.6242275373681175 -1.943713560793863 -3.269419580556082 -0.6359328460953841 -1.458263940658519 1.194996194261344 -4.476358913662931 -0.1786079066183523 1.274141189017741 
-2.000628125164520 1.433833317793740 1.103630508469010 -4.896458775774211 1.792481660488087 -0.7804374199250455 2.058178622253650 -0.1837325531998411 0.1211971438328626 2.446301683640833 0.3883013429651638 2.310159485870608 0.4324071852233705 2.443669274908377 
3.137125510797580 7.556228654383888 0.2624504844150307 10.74066059129483 -2.375949006445473 0.09222252226330668 -0.3730427851626838 -1.174395326801243 1.810850674323801 1.652392372553531 0.7327973760219854 -16.05324298507792 -0.7470336744123949 -0.3035891856333577 
7.170778219536933 6.838121395455986 -14.44975249215720 -4.705557322820904 1.038095091719809 3.648430850404248 4.462961144419480 -1.000555953053906 -0.1255254932731272 5.053198813777931 1.681044030130456 0 1.993616708268314 -1.126741816607268 
3.111240832391888 -1.307237081603472 -4.071730289839386 5.636861740331587 1.933208616504968 -2.004441634341787 1.657936773886283 -0.9717215019935336 -1.783424808988273 -3.393003544818913 -1.751645309934066 -1.955931658312565 0.2576710943685815 0.6471683934768548 
1.552586477588981 -3.624167250590094 -2.795583248284755 -3.974347792266931 -2.131787704108446 -2.717573573264084 -2.195037343390123 -1.543596707498512 -0.8999794214900296 -6.316498233805540 0.2057606593347770 -4.276095939652755 -1.639972965333383 -1.320925583489979 
-1.526692898351626 4.256852704231828 3.247479957982880 5.936510119918625 -1.133459601669964 0.9373738843699847 -0.6653328161271100 0.7513419256045759 0.2687047292111083 0.6658907952585251 -1.919546743503253 1.961898211492254 -0.09252125078823600 -0.4751751435848586 
-3.510460322270637 -0.6118001996526898 2.282799764404972 3.850253166304131 2.340893194974337 -3.353857891210613 0.1361283017673167 0.8853203960608181 -1.914926314806750 1.274347625879833 -5.601407012692114 0.02543721187213455 -1.402616245386614 1.159173720484028 
-1.661221524757527 -0.01863929328849305 -1.374959882442331 0.6193224481951702 -2.730544809562455 -1.564460683085697 -1.641220067671461 -0.2495309555334327 -0.6842989410064342 -0.9909464419413523 -2.379928966384057 -8.199145187030650 2.584377886771589 -1.477665237575459 
1.828651238106334 -0.9724756634750131 -3.106965470282154 3.646457918972741 -1.586176476178314 -2.829479576878405 -0.9411052984263271 2.366463282647180 0.6070922466887388 -5.062066885085250 -1.397377964406199 1.576865305158609 -0.3673328704084097 -1.048809333830310 
-0.4196368715171214 -3.504184642055890 6.305536613577583 -7.027460064642193 2.772852363121198 -1.786456409218377 0.4086936790382819 -2.998082874854821 -2.162939426376902 0.6133732921152197 -5.295600911230811 -2.868355417255034 -1.598766430378199 -0.9561278595153464 
0.2272686272896152 -5.026275065951616 0.1601422327677340 1.337290202408132 -2.376214021877850 0.1223202608637550 -5.454419486530616 1.317006512039127 -0.5242488844818315 3.638625305824406 0.04713406733180262 -3.455456828037910 0.7915315400867028 -0.5231276594684590 
-1.970479882902230 2.574189970796482 0.6659423268814507 -5.871866563068505 -1.246689521312138 -3.860412131139009 0.5950288497767514 -2.239847888425770 -0.6894617630547767 -0.6690766942525035 -2.979065999894577 4.209420260495301 -1.963606231969291 1.600199512137489 
0.4827972933931333 -0.06919297367323604 0.7254220124786727 1.022287588224584 -1.168494673235091 -1.461289804014361 0.1619429453698716 0.5174583335189484 0.3866318402467101 2.324646929390037 0.6234396311120475 -1.396719615473002 -0.7886254091960652 1.264191162569940 
0.6247022901751755 1.711562080796740 0.1196383602664965 2.625399166367864 0.1929997315632678 0.5454075190068617 1.831922232954117 1.707041586240213 -0.3689756603113093 0.01394254817775989 0.05876879935890914 2.927980642022546 1.156331716327220 -0.9221164034133420 
-1.684776494869238 -5.901005858987621 -1.528265770510746 -7.061750686053253 0.01717946257952446 -5.455254238993499 0.6459397405921409 -2.845633599740526 2.060169790885822 -4.647181267286722 -1.653030078575674 -10.12561328901393 -0.2834834573794625 1.149675814556004 
-4.516929235628207 5.901472413232872 -0.8999892771107520 14.34642162859018 -13.38832505775999 -4.047159857316842 -1.633348364046088 -1.217604297977844 0.2409979709823383 -1.835949765452447 -4.904147962161424 -2.004028231945712 -0.5992631179306342 -0.5796105150829310 
0.7310265194632144 -0.7303637688550452 -1.495871146554336 5.902350930217111 -1.542346628734752 -1.522523679698403 2.882579500972487 -2.677149766616459 -1.670243520002848 -0.7829831652674206 -1.460690323850565 -3.610254009158390 -0.02065021207083561 1.476320336533601 
1.373486411008231 7.501049453683019 4.117800880399018 7.235584426221354 1.053806569741067 1.915195655678456 1.715886917343142 1.661984894286844 0.7608384888556392 5.938082361074711 -0.03320798139054465 1.173577993379575 -0.4233576890654123 0.4742948577261891 
-2.370093295893882 5.206390551887793 -0.3175662427955637 6.147109546146212 1.719672129049354 0.3697652091505866 -0.08093090135239706 0.3847346123222371 -0.3741934711075043 2.880938067138105 1.755823949548507 -9.778327824250223 -0.1354603392056038 -0.3792944799051515 
0.09868740229040807 -1.005618628693365 1.998524586475525 -3.021240985339124 1.005247149342128 -1.912561896696690 0.8056325830341570 -0.9904399965394398 0.4383314464422998 0.005729525509877417 1.137690941897103 -13.55372571199034 -2.560354463536990 -2.086871975521440 
1.452768778039788 -9.468768549785533 -1.205669638885858 -8.974371210921724 -1.661607817492620 -3.319094580191768 -2.563103880750048 -3.057785256298153 -0.5821002834246350 1.560565709288196 -1.207749480733158 -5.885811611405488 -0.4369083441973271 0.7077034158401696 
-0.9689344577238093 0.5504547069760382 1.755115463588465 3.198503368586208 -1.437699131888901 0.07854007532606810 1.717216133975674 -1.241151394937580 0.7282208158558887 1.841559002657076 -0.7610943927168571 -1.516613461754176 -0.3509300193863819 0.3467960902052304 
-0.3824381140768353 -0.5611399572992700 -0.4360488336859176 3.725273687103162 -1.310666448260148 -0.09083524303273206 -1.166321401375758 -1.513794526506107 0.8683110383879332 0.7756607883810815 -0.01763874917952909 -1.848850353260099 0.6631097656353501 -1.730865851212667 
2.650895315507720 5.504157394256395 -1.465320220303319 -3.723535279492390 0.4576885871723950 -0.7994417662916458 -1.161519441730731 5.253182564547943 -0.5621631508078685 0.3158795388440337 2.220460104320956 -2.943081481572691 0.5240957672988984 -0.8397683497458851 
4.036178430041180 -7.676209262563839 -4.549555230589387 -15.22436428947574 -5.095201662480137 -2.450230702876724 -3.433304245469888 -8.213800470703854 0.5562546211307429 -5.864533503151546 -3.999347657971790 -16.53906919494101 -4.254349614867277 1.873177915409988 
-0.6662879860913088 -2.612244342467835 1.271788320539975 7.723654494563482 -0.04756656599585845 0.8704743432345368 -0.5859495922447778 -0.9031149075888190 -0.2338216702036529 -2.105493981208725 0.02935872506957076 1.729549123779554 1.142502211644955 1.091504587572297 
0.7892046600608543 -0.3158216522113971 -0.5528224758181349 -3.163642781346627 -2.687940213206045 -3.672962533967905 0.7146682853398190 1.036558995453516 0.1395650438216734 -1.016404547447262 1.589279060358006 -1.884074022813320 -0.6502665835412450 0.08416138928672210 
-0.8977750328032515 -2.833508933704526 -0.5689284555824782 0.05607882962458967 -0.3166968204595868 -1.571603004559929 0.2265206591465808 3.047288302948504 -0.9268519956487217 0.8200650450763063 -4.220419426798519 -2.020436965030788 -1.412327777083682 -2.094997075523491 
3.013298922770126 5.832667685346524 -2.001722644927029 -0.7899896254926506 5.531239833880370 2.874419772152224 4.863669163096688 1.668295510890749 -1.784262679447489 7.392843858348859 2.621239339367355 -13.86624089750874 0.1586150728567757 -0.5521365391508888 
-0.7723841845049980 -1.547201098003469 1.383186872705130 -7.269975546798558 3.203377598255145 0.5846754763145491 1.849523843712346 -0.1265165221256319 1.932548572201178 -0.1904942549485056 -0.7344434152642056 0.1461714617292054 1.483520151286957 -0.5859261788503147 
3.868567176642124 -2.992970213429199 0.2516496840227466 -3.287083154117138 -2.752597416824046 0.6106218794286079 -1.597754589539307 -1.627382652573794 -1.924345277524364 1.152617980489157 -1.459365847426584 -5.241984891318183 0.1237481253603814 -0.6557195616737870 
-2.330133259507055 5.863217975539758 -1.646105221583086 -10.85460667530730 1.028523988610129 -2.342575278698086 -0.6319812558594747 -0.4043039142881714 -0.3696826383237429 -4.400248787713464 -1.295082171955931 -3.176825894809079 -1.289095975497301 0.3532397268363401 
-1.157456265244995 1.347853214150403 1.687685186692631 3.400679951052023 -0.7455249913688220 -0.1566645607725843 -0.3841682904605642 1.990497969861435 0.9814706658599870 -0.009724863862904762 1.399441292152673 4.474618494426147 -0.6314545373885347 -1.599592497387617 
-0.6806665786318359 3.782566877355135 -0.7085517397203653 -0.9547512928163187 -0.2939438797972847 0.5820363609787370 -0.5316648490757381 -0.4742159338451452 -0.4581477295163849 -0.3048165870301189 -0.1175416729249100 8.238083055399231 -0.4568653901531888 1.862155339530215 
4.937760257249360 -8.118502000344431 -6.997941360699303 -18.07824459741078 -5.457750677708609 -4.519254592764799 -4.978925097622385 0.6437075376864032 -1.599719718866425 -7.944734299605605 -7.566739019864604 -14.64540508746854 -3.395722527975859 -2.093989359849762 
-2.394820267441104 -1.873914883898952 -0.6146258187673059 -13.20924389571617 0.06720393701620810 -2.877474253614792 0.9428402550311612 -7.363678105950299 -2.937132773150650 -4.336584264415344 4.910767505516384 -0.3697030855597515 -4.307008424114636 -3.139797243258234 
0.4346871269657542 1.229594724179525 -2.767984223791629 -1.411756126049903 0.4222880053901206 -3.300876952485055 -3.150879880882707 -0.8143975902018195 -2.064906001311285 0.2074641579891331 1.893342339992745 -4.103826644706468 -2.333458486524612 -1.468199279034126 
1.506413972137183 -0.8088266082474622 2.375694373394300 5.567992859578612 0.5007625065429843 -0.5095110722171782 2.457408125525411 3.114230720221337 0.6136124295782429 1.051025662469744 -0.09519344943968710 -2.763534866613234 3.712011906463908 -0.5622339603357042 
1.987871931770331 1.095329229488622 -1.682850827609115 -6.393029034384639 -1.583248019726551 -0.3652914901467192 -2.977801904914193 -1.496038796213405 -1.054181684138303 -1.365204455035390 1.088899010703593 -0.3557002623522136 -0.6368394585298776 -3.529824386891124 
-0.3962448135661996 -0.8359332658801791 -0.2921751419694065 -3.626920782833116 -1.295597775304651 0.6656026746277107 -1.444873230949554 -2.498183432859485 -0.3085185128063090 -0.9903007305729193 -0.7723100993537475 2.024740381529488 -0.1338690236435375 0.7919494000468686 
3.041359467739325 -11.37591128791213 -0.02345892044822510 1.071281334472213 -0.4409588838643963 -1.495007186641169 -3.178783250229820 0.3471505078068085 -0.4142515724333498 -1.568052277073541 -0.6188618132051269 -3.108923306192305 2.033108695237276 -2.670977606971609 
1.851719418769125 -4.710878818759801 -0.6604031407106603 -1.776539937438213 -0.8438352719855576 0 -0.2569658900621815 1.789265147268191 -0.002037091970256692 -5.647646387891677 -0.06613936287667890 10.47959836851373 -0.01865440002410972 -2.218283920332408 
-0.5431473902614468 0.4001786516830885 -0.04575784241393582 -15.18292534782855 -2.751995506672698 -6.871821281400455 0.6480204937781967 -0.3613925317072286 -0.6487860391983122 -3.058747408697252 -0.6763409775903972 -13.19892573774956 -0.6499907400153417 2.592368618356479 
0.09410284382218828 2.515802254242316 1.655139478059492 9.703876068862230 -0.008400085693102799 0.4480832443036313 2.366160037141512 1.741154817731520 0.2517833491116510 2.011602277161839 -1.563466202163386 -3.245869368368450 1.910904987864164 -0.08105123534215250 
-1.698638431896587 -1.154805925718270 2.414062243355578 -1.530589020394157 -1.394258105949047 -0.8097511064359847 3.838287105090032 -3.274356994796419 0.2143429739951465 5.231598572175650 -0.4255258855288606 6.951879765363465 -0.3867823088788268 1.904988333366679 
0.3715288296699000 -1.099650943151210 -2.772508658388474 -1.481517162114718 -1.026020638584666 -2.767741947036815 -1.852417993085916 -0.4676459826607738 -0.9104765426860612 -1.849452746558273 -1.429215014028820 -4.088751156910423 -0.9849385159784669 -0.1942803462832593 
-4.857285194982053 5.222519120895349 2.929901294520611 -5.643468609228350 -1.716015555969746 -0.04127694455219436 -0.6147944993080577 -0.5771351912983396 -0.6046875980425040 -1.353659443987819 -0.08632386979135082 0 -0.2283521587828223 2.201093379472793 
2.944138293740600 2.525502923214052 2.326118515389804 6.634156194388964 -0.2876015395404549 2.631867801033772 -0.1630518986256392 0.7782581361148677 1.324849424102996 0.03830157220793798 1.247385125712803 -3.176629764990953 -0.2293415554265429 -0.9270833693455183 
-0.8195730247292322 0.8336129584927423 2.747948969647353 -4.058201807642932 2.540972490053800 -3.824750318246141 0.5978904628413461 -0.2248277534185471 -1.713109229900601 -3.964426629484583 0.8103827992827615 -3.901312175629006 0.04951862890208601 1.389678921888862 
0.1757125747582452 -4.025396820562711 -2.079782666476246 -7.106207414630563 2.993357753614205 -0.5788590323967290 -0.9900123006645314 0.3967406829811414 -1.787095052478559 -4.691211812739567 0.2250915271601186 1.132863093954885 1.932685138905313 -0.6266460123718118 
1.618519844300068 -9.060393923409410 -1.138675076458708 -4.107673793743326 -3.176550249238621 -1.495216194656752 4.638744130131332 -0.8042128712334985 4.156430908525523 -2.219574249962788 -0.5789144260458834 -6.013672575931080 -2.909589828814947 -0.06823512095199422 
-0.6308677132968458 -5.726044729368302 -0.7293213359155353 10.32784663690634 -0.7458674640257122 0.07007225729357221 -1.784536322268077 0.04083415497373579 -2.133138522488241 -1.418387798510047 -0.4444481613675506 17.40882136383342 0.5728191047616468 -2.325349121853825 
-3.592820926593356 4.513020196648611 -2.965976698815538 -5.514848352161168 0.1612019967724817 -3.252966603223649 4.057586753706254 -3.465029001826130 -4.578238201108405 3.088560369043431 0.9600964642300149 0 -1.202191585414762 0.2923736139558583 
-0.8265814713989885 2.091438011238917 1.439225533123612 2.570534694471766 3.847904568718590 1.827043860345925 -1.696979963193861 2.853056107573739 0.04489188866760367 3.815327220975370 -3.383509948292112 7.432952050236473 3.807461648862279 -1.809565426487045 
-2.038130006917904 -0.04897325830780008 -0.7461497014963636 0.7652546346128393 0.06938435421843903 -2.749182198625397 2.556723587935547 0.9810166635973272 4.379634875566679 -9.517468877337848 -0.1949615895028919 4.492596018726708 -0.8293502720506072 -1.510697231657782 
2.150573551346652 -1.804728700306860 -4.629782726761573 -5.559879269533538 -3.393364511068189 -3.514583897864952 -3.895082670612600 -4.661702795711892 -2.937214866442546 -5.047489345891250 -1.907515407652008 -11.80381574248851 -2.991935128064863 -4.081130140236064 
2.186806732651633 -3.614824189841015 0.7928979140505736 -0.9315826461339862 0.2701980603220444 0.6126573746057099 -1.634916476454980 0.5137581259450740 -0.1289186718290828 -3.142890709710280 0.2826263634545443 -11.05817045574733 -0.1471543595784146 -1.588821409692953 
2.625322624120785 4.379206246739558 3.858574006680117 -9.050729136394915 1.123824255274613 0.09560104511503717 2.370152426770549 3.958453892360847 -0.0001607541173895277 4.546037501445784 0.1747029702325309 17.93225019598815 -1.842647370118127 -1.815228612379261 
-2.423475534248798 -1.839607498267450 -3.207149940015102 -12.98009949759052 -7.126767449417129 0.3294068179541105 -5.889739762873635 -4.294009768151600 -6.830000461669862 -13.26379965336430 -3.708274685618581 -4.050186265040817 -4.531728472142795 -5.905179125369566 
1.653348647504787 -2.201070875198333 2.336516814066552 2.484323975495332 3.896165705549682 0.1442578756684426 0.1379947927296130 2.330513354607541 1.800400150743030 1.295588939631617 1.931334243703356 -0.5423551224492985 0.5520608662686893 3.235949497273188 
1.459275042514216 -0.2015280366799455 2.619937606665069 -3.518284000407517 3.058190100410812 -0.6034282951185508 1.144623306588892 -0.4707374994665239 -0.2285054426374023 0.1695878731865757 -2.338569503154742 -0.4983361180968364 -0.5439227165031100 1.535739367420418 
2.945513191225482 -9.686330805602724 -1.342376155445080 5.910381687943529 -4.177706971754509 1.600638183898201 -1.331125841405868 2.149565988839824 1.412057311117239 0.5375561164563685 -0.4920932195866362 -5.314912742942703 -0.6647456756393106 -2.782395491582713 
2.176094765880412 -5.318105396648273 -1.368048652431005 -9.843249404884919 -3.879416849791397 -2.575424886566673 -3.851181176689842 -0.01270736558656108 0.6722408422138172 2.031923189839563 1.578972819196820 -3.791430725377851 1.663537478493850 -0.008986758651508123 
-0.01477540120345838 -5.245297784301772 0.9734430584228032 2.918868576929329 -3.874105922753936 -0.1639548321463961 0.3725008229545092 -1.021608965303132 -0.2143352165881981 -3.511516237516895 -0.2872776003119918 -0.8192866964874527 -2.126942353492899 0.03075136327629716 
-1.438109723512893 0.5921674814665288 -0.5499226114074004 -13.07273339416732 0.1878970223585205 -0.2905558268094367 -2.703393461146751 -0.6016831009291330 0.6122460801434060 0.6144839276187387 0.2143780057038219 0.9187616125837864 -0.8077998992181837 0.2614765350308725 
-2.325837198379399 -0.09253966357969146 -1.078312656089557 -11.25380400087343 -4.133715814500203 1.747708657964166 1.757526665735433 1.006739524074689 0.1012549606783864 2.754519907514584 0.1944965453111743 -8.206431063958213 -0.7412616683071568 -1.743639781270947 
-3.594267299971882 -6.054916531281876 -6.483088987274298 -2.085767228511312 -2.581650016282086 -4.338723445918182 0.3115699247592877 -1.249896008209668 -0.9422256701484246 -4.426458767178981 -2.881829139213155 -9.199789984761068 -2.111877145842270 2.353652981496547 
-2.233160727755888 -8.270660247570573 -4.207125752790214 -4.582307133856000 -2.006063175899936 -0.8277009667555558 -2.142993799595090 -2.344452926811280 -0.02765377323715838 -5.605002996499579 -4.195843447503247 -4.166153898705919 -4.755065695314350 1.598671796397976 
0.5062501846547278 2.550283321121889 -0.5450297303275855 -0.3608325064925055 0.5285705617053996 -0.1784453738706168 -1.100595350342478 -0.07763735110688583 0.7478566590442353 2.898071895502532 3.691176531633679 5.214803844469457 -0.08429781257175750 0.1867780370424300 
0.2750517817076399 1.222460259783884 3.149863652695292 -1.866463392483232 2.986098654205339 0.01257452589195721 -0.6528224161338490 0.07161662062467736 0.4639366575843345 -1.254882697331567 -0.3907563078061238 2.443830213568498 0.1342217341109722 0.3316296034867241 
0.2921685591285763 7.980395807355722 0 -5.848176204775464 0.5388817668246836 1.039648136942348 2.517384094326778 -1.746740430966161 -1.122131092451744 3.263681067474165 1.984325196233617 16.62488841138621 1.417961975929378 -1.919328989362428 
8.985653790623363 -18.59131539769970 -8.278590602407352 -16.09918539230828 -7.825330716943842 -7.347748559199943 -7.666838455123172 -3.101772756813413 -3.297790255736926 -5.373064970238995 -6.049847945945998 -15.80035743464383 -5.346298593938006 -2.934424555013956 
-1.679597773167373 0.4134791252463481 -4.099748405550912 -18.52594382823270 1.046689778595684 -2.087101057702355 -0.2055557049142970 0.8419372126574193 0.3130689875443369 0.6134598936086182 -0.1310542950769368 2.583959436671889 -2.172611128755483 -0.9763012867172665 
-1.319643123902470 -0.8999413612093005 -0.4389626529006943 -8.571068007939978 -0.3549743960587296 -2.177159238738188 0.1861370242929388 -1.015714090051926 -0.6937600292815469 3.036965982942873 -2.223815564547393 -3.977637129954154 -0.1049668692441800 2.402317678034775 
-0.6616825877133831 -5.274298293709540 -0.4455321987553175 -0.7527440068087353 1.473119802376670 -1.806974740310000 -3.227055415259115 1.579852455702828 -0.08176893107909643 2.921570103265703 -1.571398925275723 4.098525459652888 2.325909857787515 -1.190287482510520 
-0.1680816136277272 -4.129394623108643 -0.1330683529181421 -0.9587062296347030 -1.227332693525779 -0.2315207022226281 1.521765515487979 -2.390367630114418 1.678464535243661 0.1615944469084346 -0.1867800858812555 -8.566760077252182 0.3096274495200856 -0.7589219975797686 
-1.654824777923038 -8.522280919220302 -5.961179361602405 -4.633147501182612 2.450669323573523 4.893357314971591 -3.488877243040846 -1.195220264570152 -1.156396119107399 3.160953867966612 -1.376961635688485 -2.132861037587934 -2.534813778965920 -0.3003869338554742 
3.106171435735606 -1.096523009811776 -7.993255105934371 -17.92646468220508 -23.61057811186202 -10.44061431401889 -22.27847624017262 -23.31042639360082 -16.64745443457013 -16.41074749450302 -3.984854002223533 -29.75052142727592 -5.659895668720235 -20.93493741802109 
1.432339630686089 -1.475259649474909 -4.357814446017114 -11.25298857713468 -3.005450047214808 -3.608956271733428 -3.268810919384385 -3.324973719697669 -1.152093821775604 -6.852652219493029 -1.960555144383001 -1.763919886412168 -3.740731938410425 -6.346428080596129 
4.635909749242689 -5.902071634225844 -1.722933990164472 -3.493992550915014 -3.073135286388931 -2.323440980981025 -2.630255176809984 -2.327227549303716 -0.8834268239927517 0.02380934374515228 -0.5959897259706120 -4.522757878622929 -0.7171607676035638 -1.404588547843396 
-1.364737574541904 3.293575854693554 -1.555683181342120 -11.72709865875516 -3.001566901706305 -1.558046396020631 -1.628530975260536 -1.217696871491772 -1.183872716075958 -2.122168686801413 -2.911710235379961 3.027745948293676 -3.148100631293131 -2.121710776492136 
0.3021284144487483 0.6645527451944825 -0.9612144816650318 -7.220037688465083 -3.692015149447353 -2.135388285927391 -4.072437973440769 -1.762996156151010 -0.3444466946955939 -4.391023988112668 -2.306761894013273 -6.956875780870821 -2.901549888907034 -1.698776814921201 
2.646177234530002 -2.264929433074993 -7.115293595144083 -8.282814957387230 -4.335352176606183 -4.823515749581493 -7.015480779134546 -5.042526272238208 -0.8735063696704917 -6.888967216127290 -3.532591808929629 -17.37588504034815 -3.676009399526007 -4.916113273063941 
1.748991522299000 -2.298637172796297 -1.052943202625631 -7.256681987075069 -1.565699121334040 -0.9496788575865477 -1.536449365709067 0.9494581495498680 -0.5059356376057583 2.381733788599087 -0.4054355174027675 -0.9812635653963573 -0.03947576924759993 -1.467966895344802 
3.290610114321087 -8.733577915255582 -0.8663063084420921 -6.433017867994195 -2.087946766995835 -2.200895533247753 -1.524744652710349 -0.5936221278652310 -0.7591358730023169 -2.893025982863514 -0.6801646426674266 -6.946563487150912 -0.4651481993030617 -1.590872049295554 
0.2826480828014927 -2.303257946581519 -0.2965024455267873 -0.2172575977602049 -0.8837134378896684 -1.513325786777410 0.3763096855169255 -1.017663945698737 -0.3457841327044565 -0.06218219605172827 -1.173471999337620 -0.2017328003005141 1.163051460390320 0.2157831094775425 
2.052518427977545 -0.2205389552952627 -0.8666243060160449 -2.030053825866454 -0.5567982451397051 -0.4401793618222828 0.9262485984732445 -0.7254919093376992 -0.7794935825374689 -2.976700384736730 0.3387099628657846 -6.541341737128912 0.5700372986817401 -1.085933308869993 
0.4978963137448452 -4.991220543512648 -0.7350278555329378 0.5402878728020801 0.8887909663410339 -0.7497880820827474 0.4636354737432358 -3.269975008272735 3.359060068143277 -5.532542514333214 -2.094117320097746 -8.392536067939341 -1.184059531546580 -0.6120334235526899 
2.158579645401312 2.491328394447629 5.551626228488493 -1.356417915598841 -2.592440294070075 -0.7886606481813544 -0.1953385067335746 -6.792056608259238 -0.9457875108453605 -0.4906728740258204 -2.870150267062785 -2.570350734440683 -0.6918731087866608 -2.522085577331637 
2.560910768991749 -3.070599863810238 -1.024360362384794 -4.753941531208206 -2.359356035457757 -1.111557323660197 -2.989514103179959 -3.103043908174743 -1.897786951153503 -2.163822875426588 -1.305885780156907 -5.897917904417600 -1.145524413210342 -3.651078719325558 
18.70043288534767 -18.23685080843082 -16.95018509275574 -15.69368684368769 -10.79807315118551 -16.83901243779603 -20.49469276394775 -15.31275422700028 -11.18997353024033 -12.68682470491087 -9.025593956992203 -24.71411074046500 -8.446728331764100 -12.90327897410878 
0.1117213513172851 -2.637599932541720 -0.2747516287886349 -2.487209251136159 -1.852906321851835 -1.184579863199349 -3.216211280612440 1.878517937807088 0.2928203764100426 -3.100019251980240 -1.466419192317821 1.879654520520117 1.717057899035305 -1.061218485571958 
0.07079629037798163 7.981236239028359 2.122048361822762 2.018094867885187 0.4317484917787854 1.509159948920137 -0.5120944068786565 -0.6901870255213065 -0.03066257664625427 1.965571497783061 0.6387214479973359 4.456632767907230 -0.3109571048728818 0.8784879593818886 
0.6622822363565672 -3.186979778601072 -5.400946242624253 -11.28732045047390 -4.069967652296911 -4.305872657201046 -4.953438265923185 -0.8739993577185745 0.9133051424151027 -2.857019409754182 -2.264553739121206 -18.34885728385628 -2.633428802957953 -3.287711146777498 
-1.784041022631629 -2.533907896091811 -0.8926960849286368 3.516153295102069 -2.508846743544657 2.997811095225732 1.355126473516386 2.777445033778152 0.2666570098750338 2.582814860044696 0.6679961942794173 -7.832066372517158 0.2545946985856847 -1.546065546711085 
0.1802310490343042 1.366096286495282 0.04999180883381715 0.01362641785740768 0.4060474809934774 1.844991157109400 -0.3962079996560057 -0.3494098547883945 -0.8303713024064215 3.611924440552575 -1.805893371090365 -0.4799789222920137 -0.3601902317507741 -0.1435602344741033 
-0.5010960577021271 4.709580249876053 -0.9859225681471179 -10.00993981789673 -1.351854534141974 0.6423086579337625 1.858737236808830 -0.5653946341959265 -1.387482768244921 3.854749536050036 -2.587087323328002 8.005131937954033 -1.041793977371466 -0.6550753086764938 
0.4705198343223102 0.9286443416121811 -4.042143934902965 -14.42207426750006 -3.445847818544460 -3.130189500585836 -3.304155376032640 -2.836079699550210 -1.716051081929042 -9.188382211580805 -2.967095268112296 -9.635859834448167 -2.005956775598073 -2.580049565132023 
-0.5154121447760482 2.114190887970372 0.08265381862428820 0 -3.708341345415001 -3.259392778808326 -3.589935672464536 -2.365249024083552 -1.949794348082682 -1.768067231338266 -1.231721728510365 -8.053596532621876 0.07079042967033763 -0.9858950020656840 
0.3349503284031932 -0.7709511163723255 1.361643971592827 -10.33907271579432 1.613992400397895 -0.9568580177874574 -0.9563068161768578 0.3569816560255709 0.2920717194638099 -0.5747778613066423 0.2578231632503625 -10.09000150438216 0.4863593653608657 0.6901114532177597 
-0.6543808614241357 1.521968718961700 2.082481066173907 -0.5531848078110256 3.247827476014520 -1.135004367147942 -0.02064115926653698 -2.490274709393670 0.7197109898170876 -3.346577701719329 -6.127908716659134 0 1.115536013942458 0.7316241510051047 
-2.265841789106457 0.4448659916821663 1.472019866417750 10.39517784130616 0.2795829898127984 2.322473152694196 -0.8127419821231581 0.7260670688081760 -0.3121377443815914 -1.924376256705071 0.4828374239861256 -0.2958983684026476 -0.5855006211812810 0.3714858405709825 
-0.06055967909970419 4.427520733760481 -0.9725720121928838 12.38370346130296 -0.5467947672137227 -0.6206816035979913 0.3778693786976087 1.492481628033822 -0.2163772945673186 3.346443943684805 2.028249863411545 1.035018055674807 -0.9468053736183037 -0.1717891687342746 
0.4548382872231661 -0.06326130805531030 -1.277004735421694 -0.9937553550233105 -0.2888622143917125 2.363165457805760 -0.7774059517656917 -0.3204844698152187 -1.989709156567831 -3.235761656776622 -2.399209435953437 4.414760671517054 -1.324904417057059 -0.3215084774691147 
-2.010162915625935 -1.421413752775362 -1.825526730975653 2.584417221813832 -1.110947586355878 0.1739323627967312 0.9823195500637586 1.387894305996151 -0.2395572590753383 -2.894798264878687 1.063562069706141 -5.116847088746294 1.245220033264054 -3.583320133678071 
2.849841327776966 -4.945123100296312 0.5937020227972496 -4.101579154048542 -1.005503438297922 -2.287915736877803 -1.165381199849054 -1.482946808582654 -0.9094117083575907 -1.758206793172045 -2.373758335343171 -7.105317450180166 -0.5367451754019843 -0.4042475104679676 
0.4423438122497104 -1.661294229877027 1.398251971440324 3.777382541518286 -1.956733096433119 1.728487964478649 -2.304339598945265 2.318786760702526 -0.2066270025442479 4.977945413987670 0.5572516538250726 8.349411621628956 1.368021647548357 0.2465595748498627 
3.558622954135785 -4.989993983329764 -0.4126733764809031 1.670032919654807 -0.2599803233622374 -0.3609115931698306 -0.6442022070962063 -1.288235270198299 -0.4155733156752547 -5.606272768289557 -1.172998435054659 -5.332368779082609 -2.357653777985766 0.7673873764935654 
-1.403135701474064 -2.166871205994017 -1.344831702653826 0.1332967975404974 0.8943404267985331 -1.887601683989225 0.9854910814053071 0.8288378411429469 0.9151778067864175 2.848047973612784 -0.4524804648617670 0.06492083472606844 -0.02514441686280150 1.185442152568594 
-1.596087947924641 -2.496331123810239 2.276293848983461 -0.3289526731636179 3.412539549185461 -3.053468127063286 0.2488102889715229 1.578301627779033 0.05047842689319134 2.874920027848250 0.2230791108572376 1.709388284473126 1.099062853042223 0.7296252372021732 
-3.143687766141175 -1.475686774162711 1.517721385700551 9.646288585739043 0.1186200353619023 -1.180034495431951 0.3542266222557655 2.174099205388199 0.5691828180284730 -3.521257345607561 0.5166198828826034 -5.692225823906213 -1.635766463960663 -1.658677012293915 
-1.599287039662809 1.776989538407304 2.329128106962080 8.188406227953350 -0.8696571721363073 -0.5959979792253731 -3.043349322019316 -1.190109983820421 1.463716463826754 -2.135283843416625 -0.2560408260597805 -2.102158123576695 0.2445610692934995 -1.237509994589414 
1.552796592159474 -5.481823954976433 -0.7560562002733916 -4.321375309570503 1.385743759742401 -1.138554441826126 -0.5043750758058978 0.4578093192911186 -0.2308360680094637 -1.715249205221161 -1.911989841013282 -0.08253743882172702 2.406708703259233 0.001220226912308982 
1.116544830975445 -0.5734037346071200 -2.824898075593667 -2.949962660655797 -3.195789597619667 -1.363876803753392 -3.517042819814741 -1.616684720844899 -1.006678424299688 -4.691129838636670 -2.829044928952099 -4.741401617651377 -1.272685022410803 -1.367933636365125 
-1.825172747037728 5.731396604623834 2.337487699622121 0.2625052193014087 1.968932016805086 2.052118725592236 0.5158346158751872 1.366265751356599 1.348604153810697 2.211823530354777 -0.7785338112509368 -3.228632915745056 0.05518428929298785 -0.7227269818642000 
-0.2957557738814928 3.883828728380497 -1.553997494162428 -0.1712420671471131 0.9299343572126287 0.6158445158083992 -0.3774890354418676 -1.280013709625485 -0.3458790121139082 -4.520130966649364 -2.373460332917777 -1.871510341520017 -1.474012944273282 -0.6553730817521076 
-3.087273075274408 1.262191569663055 -0.8730953253518535 2.696076369762794 -0.8356505319984466 -0.5030874852780002 2.552723251751248 -1.876438038152893 -1.240501240634040 0.3913409763526566 -0.7613651852331084 0.8792891119935720 0.9716488248618590 -0.7465293398288957 
0.2620392367355701 -1.022722857027363 -0.5489012813239202 -2.397640657686802 -2.915847696294241 0.8107402990573086 1.024845990897507 2.166439323366925 -0.9277252941048075 -3.511142156985749 -2.440495141640707 -2.536644839180465 -2.835888967851608 -2.038647825137536 
-1.444745166868377 0.3820044513638822 -0.8731379038046865 -4.100158452076098 1.992519625696432 -1.011928275666744 0.9407366359699995 -1.116597525390382 -0.9717181914399483 0.4386028236920229 0.8684717917417724 4.458331747130725 1.219150215609365 1.412341790457069 
0.1478834910693074 1.996600060925338 -1.919156951307209 1.301422903931559 0.6498753669382860 -1.780359446976359 1.562106456554774 -1.700737535952135 -1.865292056853408 0.7745974189724724 0.7846075836213086 -5.488887408666679 0.5544148394413126 -0.9202915446473213 
-1.018945056768435 -0.5367225278020161 2.113013352960687 0.8865475860085621 -0.5014718394920269 -1.848670890592023 -0.5877338199671321 -0.6465491731742873 -0.02764250845257803 -2.693738366172714 -1.930675637550519 -8.010830042408270 1.651095669975757 0.3531041098217199 
-0.9282262632296945 -2.648853872940381 -1.792374852949213 -1.140591615911704 4.321436755391622 1.319776814876190 2.333364474361480 -1.399900774522187 0.1989373684820544 -3.083165281327807 -0.4079938381219944 -21.78966321849697 -1.118117627054484 0.4704517699448541 
-3.841248839516866 4.014762661252579 -0.8179082615678217 -1.352672207817269 1.089335599036315 -1.508996381322959 0.1070948959642353 -1.269990145070029 0.8476334683607358 -0.09120058198464395 -1.216384214351002 -3.344760871136559 -1.170983476067154 -0.4285547374418520 
1.529656484439925 -0.7732323188128236 0.3751260871502057 0.9710123693151582 -0.8174942216823953 -0.1003122451387223 3.044513806126833 0.7232420659231895 -0.7182034119010756 -1.884980483580377 -2.123088590832734 -0.5763160827715512 0.2185018230950465 -0.6071983597386776 
-2.093360885320252 0.6451709939429570 0.2810813014345207 3.268373546366542 -1.525350705324301 2.044856866303245 0.9651472917061262 0.2243996977034834 0.2048479609288823 6.359597715213801 0.6305597359131188 -0.04589237540360188 0.5408194079375602 0.8303985708573475 
-0.6515334680229766 1.931472053324552 0.8376426415791781 -1.110230741570890 1.220591137923779 0.9911058710993075 -2.723283230651614 -1.017428355625359 -1.308579979730103 -0.08886109273014803 -0.3308815356578898 2.817655110346195 1.114177723994746 1.395833912732744 
0.3527475249155848 -1.138345635719736 3.575195444251333 -8.530130955576182 -1.438766948731301 -1.758202367592449 -1.268626252668108 -0.6587048382072652 0.4623393984381063 -1.818389569000976 -0.5628812517904960 1.596208948205810 2.523652114543398 1.669901427042500 
-1.517479079321201 -1.548528781746976 1.428695022447389 4.630816436392492 -0.3969105993146662 0.4725899266773583 1.533423959216617 1.510340697941160 1.786172270891746 3.167616628135942 0.9990913146149383 -0.9859180010322727 0.9213845499663655 -1.120181109691639 
1.123392974096192 -2.053330333827697 1.650432865611071 4.632119496031047 -0.8205378254430171 -1.105794192529309 -0.1435991678396583 -0.7780240660507372 -1.404959017883933 -1.667289671731112 0.6208850708871222 -2.045747227812238 -0.7391330302406967 0.8802609488816748 
0.3841366704996966 2.594965847695113 5.182818825061467 -3.104058545368511 1.768089432119667 0.8982457793129038 0.8400068836849585 0.5231609743214077 -1.475076319101104 3.097662562305816 -0.4071525494752948 -7.143396459771867 1.717080723005154 1.457718838212663 
-0.4308942780280626 3.054678752524584 -0.3842633470857622 -2.920133429079541 2.372832613630344 0.4580377667306507 -1.257403018756600 1.091256289216855 -0.08599872725585125 2.238087527470993 -1.941272727118252 -1.275720691208271 0.04109132382918273 -0.1089429032542807 
-0.5708762994401646 0.4872082058210218 -0.4933131492015208 -1.518190593327384 -1.559566485231762 0.7755287659847839 -1.278498398573648 -1.968717872921524 -1.423504710173946 -5.182932511994495 -1.262212467235246 -6.304854269835885 -2.950141134324559 -1.012153797709278 
-1.760498107745881 -1.439159612987189 1.030921790280690 -0.08616357659615612 -0.09762543855283098 1.073649608758428 3.261090322532093 1.571283537919582 0.08456563487215127 6.626675328309692 2.592461900489638 4.481172080881933 -0.1082937393420987 1.074607210216568 
2.206947279729441 3.773496381490963 1.336076847121829 8.901282451509163 1.246355516856004 1.351788994446199 -1.019755540977222 2.714278778930217 1.366383274034606 4.625804457531772 0.6323634045445913 1.330836642133620 -1.126226760483531 -1.554307689046323 
-0.5219746432656732 2.848650366472610 1.394644579212348 -5.069093417266640 -2.466921276771290 0.3589628949592140 -0.03124181975915089 1.098528061746339 -0.4788430273224848 -2.682905578116563 -0.3096726690208383 0.6992625335629135 -1.519669843430806 -0.9499514827595821 
2.402477475117749 -4.251626385529439 -1.159038586957638 -2.474901494477487 -0.9502750735308031 -0.7421775529839469 -1.828408868730191 -2.704658746492683 -1.208525278829614 -8.903259111990950 -1.118954981424350 -2.307860962878936 -2.874685448432095 -1.222803053615291 
-0.2119937848750366 0.3992911012912880 0.4809163030794349 -8.283049630961221 1.421685335589646 1.939680217695446 0.7877208144525358 1.757477251085526 0.1513853372423419 4.937183495136242 -4.011987714948639 9.294104403343198 0.1850835492477276 -0.09387070360475214 
1.976192323088835 -1.091415577093635 0.4691670852721321 -1.529799519796649 0.6724381840704161 1.139187587398191 -1.106103927162600 -0.1122000456521579 0.2699540144299994 -2.284620263607996 0.004583232419557201 -3.240406416937994 -1.064397312331318 -0.04196013434379361 
2.257182723173441 -3.279458462604457 -0.9957738026197374 -1.401324288016414 -2.724709419259238 0.4594333657137498 -0.9140964359096401 1.005802066207646 -1.611333878829924 -3.461376090919964 -1.585998318225536 -6.556388421676163 0.4839150537881084 -1.104662892216815 
-0.6066052365458514 3.558617288031764 -2.197367225048326 -0.4772080716871699 2.635701118184987 -1.832158407754410 2.945452968825612 2.146596804510759 -0.1315167514470319 -2.018426952778161 -3.162882107850123 18.12156020318509 0.3733965228487027 -0.4678236080410500 
6.060537204325753 -7.452716683707100 -4.757471364568790 -7.827812435282142 -4.025783343890584 -3.830031639399340 -8.137913143496458 -3.695408240659369 -1.961655738409556 -3.926436496465457 -3.285907360685338 -6.730989841544248 -3.318681476112492 -15.67720104977781 
3.208636172404389 3.132059557027149 -0.5380772830935937 -2.035085445014809 -8.541264987281048 1.502196820397465 3.716456518213210 1.040892531134382 -0.1078804918258788 0.6558075324542182 2.000946440671973 -9.228732881185637 -2.295795450704454 -2.386110466534966 
1.498074925717339 -2.899836804485342 0.6011616505061071 2.476402551551604 -1.098530020330661 0.7186976285530361 -2.609191634085783 0.7904443279696406 -0.6255576664629999 2.824213456007127 -0.4601209498676627 1.256423377037997 0.7947282589872650 0.5996990546397655 
-1.487964649265720 -9.055692324553785 0.8357473076226667 -0.6957620310085598 -3.062748539088280 0.7706753696518125 -1.527317824587733 1.898985154440036 0.2339299921139158 3.949292925717256 -1.744632653555578 -5.668725282320411 0.3726126300112441 -1.601930741585652 
2.951258659979982 -4.625302207873566 -5.625116309223089 -8.146012182563924 -5.109069280209472 -3.825088006244822 -2.998966164857666 -3.335459478865427 -1.681720553220863 1.079107319279208 0.1947281253237675 0 -3.996789694145080 3.623783048807418 
-2.449465764030154 -5.809097099941011 -6.554650289870876 -6.590884742186550 1.054052012212416 5.798464217585402 -1.195649295782072 -2.523380638475561 -0.1563684338799744 -4.513199869785886 -5.223540990272751 -8.157362311512907 -2.419867116561278 -1.644484061995561 
-3.768807538652848 -1.906008460433960 -3.424709911814567 1.924912862475664 1.174435829215767 -0.5242705384966513 0.3130858777594253 0.5288178771961451 -2.073006092167235 2.921390353759375 -3.449488395328475 10.60528928247225 0.6669645546599575 -1.499275985133196 
2.486129677443981 -0.9948310431229218 0.4430785480444208 4.115446237313072 1.889413372095232 -0.4058049371828167 1.918891492976188 1.059372579479383 0.2860794861865695 -0.5910026672614230 -1.360522668238510 4.853109459980210 -1.041339681903886 0.5402088212135202 
-2.615008741722349 -15.45284110819886 0.8115928249631048 -3.463333976169579 -1.005415683635640 -3.067649039241867 0.2428993728409224 -0.8588554643867428 -1.345124123519319 0.3660236212506094 -1.635407494923670 -4.376331083174072 0.03033953910257978 1.417175140924538 
-1.253808552746945 2.874319020026311 -2.840111798108630 0.007122455566846875 0.004799374341169893 1.370241456595890 -0.7150787211971812 -0.9410026242732825 -0.3035752064328588 -0.4393950794208457 -2.573152092151421 6.118723569043809 0.8311068919120762 -0.7895311385340484 
-2.539115623456684 6.410297458819240 2.633426942594223 -16.42663443004387 -4.294129107601131 -0.3757208847671456 -1.055912269838041 2.266882791535296 -0.8643009290490753 -3.381143196775095 1.704219471030118 -17.19164740098214 1.123368882020089 -3.213035122637517 
1.632614756935508 -5.340754777326900 -0.5470171306287143 6.255693289587682 1.573655900278518 -4.065996150319017 -3.738307251969284 -0.9973748940362993 -0.1754081597962594 1.759514630608686 1.378963192980885 7.465624574643423 -1.634747656220652 2.737822246653043 
-2.241299292542318 -3.330404651392684 -6.244183031530795 -3.084182864824883 -3.690159341095557 -0.6438067573733504 1.663968756685314 -3.615724981919890 1.071872437006323 -4.621713747007412 -6.972478579849017 -12.18054521942926 -6.284786892514934 2.033353902194228 
1.721081095724329 1.105968948153544 -4.637685636128641 -13.00881217205464 -1.628041454690556 -1.223082562677379 1.481100717538264 -1.033184477848713 -0.7854921127858526 -3.793814619971487 -0.8545868095842507 -13.82875887384099 -2.676049366213509 -1.917609853063953 
-1.818462528589707 0.4891209542970000 3.594927663217884 -2.163112615240166 0.2244653523563699 1.331066573529974 -0.1033041045189219 3.817362568817826 -0.6072600385943122 1.294537980452828 3.560043365581238 -19.14643813889266 1.920379157420206 0.3245811043733927 
-3.260214794294110 6.436844701821569 2.470679491212522 -9.540499066256745 -0.7635394213200837 3.490844777753635 -0.5860258068619327 0.9247672562421096 -0.2997965956097654 -2.949525211233738 3.186400681886864 -9.556255124136113 -0.4635293334178814 2.065656169811576 
1.845910300706629 -2.370036076998074 -2.083999201300911 -5.931785450359545 -2.710430424645554 -2.910165926075172 -1.076164103469785 -3.452909376383237 -1.022295322977232 -6.014643620938725 -2.119899388075376 -7.677274420317577 -4.845471335919564 -0.3011367887043225 
-0.7480013328172437 -4.368036023981113 -1.751241686868509 -4.464022898401521 2.730619050773302 -1.514638294833634 -0.09515884736381774 -1.307752577705080 1.946186336825245 1.669813925406996 -0.4316511735744079 -7.601793152495294 -0.3914978903714277 2.013645486431028 
-0.5184489000273493 -11.38782877641182 -0.2692799064997313 0.8500564314945247 -3.377469659171290 -1.661676579142935 0.9185744770804888 0.5345301343510165 -1.406844674794094 -4.597015685518563 -1.906254088288856 -7.244792278169077 4.099404184755415 -0.8642614399277553 
0.7533036945423613 2.436871341086746 0.2058276285450616 -1.811300920644447 1.497234260197133 -3.131540871397344 0.1798292033677082 0.9094740745155515 0.7961447120837670 -0.8304020915611846 0.2292274520707182 -0.1295978495920087 0.6558036597363283 0.4683283005031516 
0.02914531895938236 -1.015563254040169 0.3334496877870786 -1.896637908341160 -2.420290672614424 0.1452973371357765 0.5719130202953089 -0.9289471645299207 -0.09510666813064690 -0.9318651633701018 -1.496374699384334 -4.051788165392992 -0.2287114446383075 0.007983330350708286 
7.421093174648238 2.315049026575784 -9.541968907668846 -11.04422555846768 -2.836127120473522 -0.9654728269004176 3.090213989608075 0.9106763139074691 2.194350518169752 7.164812663506366 0.1795930420849459 -17.38300251672755 -0.03114868467051830 -1.749510818809516 
0.5358928816179700 -4.056629615645377 2.943025695166993 3.519578459370504 1.035368245760652 -2.004850118108023 4.243024050602812 2.561040676279730 0.9220058545495042 2.382397618707629 -0.09633419965717803 7.676133341792601 0.8506081492387699 -1.128454894459393 
1.235779061461842 0.2755818786976398 -4.466689834801327 -8.954564145194555 -0.09970313370493546 -1.850383772529177 -1.926990775682859 -0.9595929047667100 -0.5328469211504560 -1.615110787576762 -1.135618887053545 -9.533018142787020 -1.597670528090215 -0.6081447864197659 
1.374022545353662 -0.5460013295408529 -1.181552825925536 -0.4726458002466653 -3.632314460891954 -1.075917049189513 -1.192654165359956 -0.5126933518032935 1.171809954292513 0.3004849703246498 3.572303490828678 -3.014777256182424 -2.176063428535273 0.2504228479363360 
-1.445362780858863 6.275118030061369 -0.1501497887190260 0.07580919449457868 3.139758776774408 0.3027771461390437 -1.251571526799930 0.7812765397174535 1.335512134500688 4.584645740980369 0.2935318681231063 -10.43921652973940 2.133811078413564 0.8580352438139989 
3.789772317729987 0.7072265566151867 -2.620167791400166 -10.21145547919374 0.1706387303394514 -3.156299526882496 -0.9350666538396594 -0.3190599436912472 -0.06082697289781112 3.230828101228024 -0.4893379687346768 -5.520046112708565 0.2617224184831051 1.090422023102031 
1.953417858150810 0.7013506011620920 -0.01069369782073112 0.8587385155063756 0.7480785174817269 1.728073828442312 -0.1399395430061618 0.4167089082736416 -0.9712140746347167 1.082356471997689 1.593521592193614 -3.460986991172379 1.858668413214633 -0.6014178357107466 
-0.9671010565577252 8.593892144271265 1.163360388841550 -7.740390649356642 -5.461042889031861 -1.952727666232093 4.833277825271486 3.638484134897098 1.675362933045192 0.4316274874759896 0.8514886328910154 -3.448724289739767 -3.384975292851400 -2.265074560109216 
0.5156711151249151 2.579527451861208 -1.240860667325909 2.356923851732581 -0.2467342261542257 -3.362208638456287 -0.1151569719982267 0.5221629680471169 -2.691641094638676 -2.529873284995783 -4.118976023887783 -14.53197080867076 0.9269573553639042 -1.285511493210868 
-0.02243376957391330 -5.636259777864862 -1.158338468088483 0.2558299287940704 0.7702236794795663 -0.1242707485215887 -2.044484570475186 -0.5313847489067330 0.6308148159772273 1.373583760234383 1.783836405795167 -0.08361904383060287 0.4297312215681234 0.6020442702592496 
-2.813993269950991 4.906867979601702 1.412015587949564 -3.842630456168947 -2.632142502965009 -0.3432627435836185 0.2532437416118462 -0.6887253673717435 -0.6262175183185373 1.451076268767766 -0.01742490308815708 5.654343843632782 -0.5861218026850672 -0.3267271463965155 
2.051007567922497 -3.165774174388238 -3.185208724476500 1.216831053701927 0.1286457827794325 -1.649883824543878 -2.891867386658444 0.9335089224355112 -1.183569936443797 -0.7860461991275431 -0.5565708610576962 -17.84062970017999 -0.5006468716381567 -0.3106626311216796 
-1.158337368145163 3.467397867851857 -1.206479760769653 1.272031368776439 -2.510907643664215 3.069604016760044 1.610920913849703 -1.241258451554762 -2.872469453928938 1.155977001542600 -1.596054534710647 0 1.118095137750939 -1.317958043327797 
-1.818547521710413 4.486309224805730 0.05471563354346243 -6.039721814978552 -0.1076444822195587 0.04468603361838034 2.480261052050490 -1.581385157053148 -0.04012749193654235 -1.735870126932855 -0.5545895468398230 0.8347707962627590 -2.098734614997383 -0.5408707825693041 
2.852342229388162 3.882509754197263 -5.303598514862389 12.65860720607618 -2.477837245518186 -0.7734411648447346 0.2326436504151984 0.7701285403439735 -0.6653793311452681 9.359390748704797 1.971808228928089 6.677843786811471 4.229134322557961 1.811190686230958 
-10.03511068447683 -26.73364574595102 -7.266332415033049 -34.35377370337201 1.582938092385598 0.2874811261099736 -30.73451859988163 -2.325736250331761 -2.849474423915794 -15.73926931134575 2.568502313817171 -41.70342314127296 0.2553670810787350 -13.40596592758255 
-0.8580499382832172 -2.346201297613045 0.3947792731156075 -8.493603800923369 -3.045163221711637 -1.397062280012747 -3.548215453263292 -1.213669395717012 -1.287178698491921 -1.283836096865456 0.7821592740444815 3.121592668247201 1.284184246773974 -0.8416947176799484 
-3.250524175244491 -1.662424590696555 -1.543501678648569 -7.180863487702640 -2.314091997750341 -0.8518799610636517 0.3618942791252364 -1.338693339699578 0.8235438356522548 -0.3874957473263966 1.369635241997339 -0.1819600390751541 0.5487791653414386 -0.6377606078464235 
0.5171654724020217 1.478285956349340 0.9227458790250189 3.370845535621166 2.883010386155970 -0.7197404238474500 0.2460681473165867 1.459449536985936 0.6805611323975195 3.184437313821985 -0.1243485323485423 4.817028189235199 0.4319267327232798 0.6002561535393678 
0.8302468166973400 -2.426076556627669 1.328726335000253 1.510601296289527 -3.357625635577586 0.2785479144071901 -1.325962576390998 -1.727395026854151 -1.998263792371675 -6.040371043766593 -0.8539585137467716 5.827487422380708 -0.6587821970896098 -0.1769152816100096 
1.515949256483702 -0.1120216208803618 1.520537702183895 8.180848967896125 -1.151401780587535 0.5328182820898281 2.413689521754260 3.810563814224537 0.3747471277735274 6.760534816233581 0.3520508048153198 0 -0.4910244610702351 -1.824634119616243 
3.541830501161516 -1.977073265871609 -1.737732930147319 -1.050319747512027 -1.953426142629976 -0.1797566682681080 -2.989912998432294 1.096433081905261 0.5010869236015472 -1.011399611951658 1.180639668715789 -2.985197819690043 -2.181657481323832 -1.318123577333397 
-1.881643361670779 2.834387203169657 -0.7087675685963023 0.3566562238494700 1.171954593290024 0.6654270620309042 0.3562315184873655 1.199521151151800 -1.613284168686164 -5.646493510171577 0.8205228331487158 -0.6787487386453838 -0.3053942722872717 -0.6411307306445860 
-0.4353269928963703 1.857552674997123 -2.228640871054047 1.180842350386427 0.9999104515353866 -2.348721344756955 -1.631809006953546 -0.7932629165669581 0.9887732281839060 -0.4767369104377491 0.9540264959792646 0.02215813961151059 -0.2289891007521306 -0.6943498429609989 
-0.3544766329720263 -0.9222401237965644 -1.039791070317319 -6.170801632390083 -0.4782767365992923 0.4511500011633369 1.750060244215944 1.594238136059395 0.4219965744064725 -0.5148681821187319 -1.224263764274616 0.5499243878754094 0.008402423484721552 -2.298865772842575 
-0.06967740168117537 5.742372080056614 -0.6194738498841502 -3.288924845025006 1.535880962155008 -4.557556644234008 -2.331212244853246 -3.929110047422793 -0.5492265658481207 0.4146872574942238 -0.7427491101283843 0 0.1504081131181191 -1.158147214065070 
1.603396504095688 2.013705228668971 0.08140993272005118 -2.172403701561905 -0.7245290845051853 0.6041615581784924 -2.134813098583926 -0.006079107238069021 -0.8890845262393108 -2.187191865466848 1.061332395022505 3.650962703287116 0.1116560448982769 0.5112520495639435 
2.830680012740378 -0.1810761041619581 0.6379526683205674 8.965847087356382 -0.4825229548525400 -0.3017933772307727 0.3242634275032842 0.5350922127727041 -0.8942229102428778 3.245426975382859 -0.1123028809273263 -0.03615545093778977 1.547069765069574 0.5702837825861922 
0.8209422904956805 -2.236390910419409 -1.753449144879485 -21.45366626869742 2.744402712845221 0.08693849051053430 -2.503551008281726 -2.441486340569899 1.040177937840602 7.762676684133856 3.517241633081736 0 -1.884725791319859 0.7978505401299325 
-6.749284987761419 0.8557782586520379 2.074913104374184 4.371318038321349 -3.485693632930061 -1.625929387371386 4.666034403502507 -0.1438186090418988 -3.371313369549654 -1.881986892705455 4.378899315848731 -3.457033922260886 -1.180496698986937 -1.521440253203866 
0.4874115450560843 1.228273752909693 1.451968540307198 -0.2223413986083163 2.317537305982318 -0.8888831345088354 2.046597594449616 1.256723481088986 0.1844927275177531 0.6054568157439036 1.464873678077493 -8.472462006005882 -2.353797669749398 1.218253666127879 
2.300948207515504 1.039748064450134 0.8268833064697411 -10.74836550131754 1.922497722848438 -1.219098438421244 -5.111531357167801 -1.984790262461070 -0.5075653497398007 0.3058633687374237 -1.213361693505666 2.336554767754001 -0.5355656602465082 0.2944437275845963 
0.3360861414278685 0.4946562778176271 1.630833199685122 1.372131715253109 0.8669255934877454 -0.3517936193911226 1.276634905027695 1.348937480979755 0.006478925158575191 3.006203251673570 -1.299630508859870 2.277738197670384 0.5635516429303324 1.081977730197757 
-1.601967984376772 3.704283525842230 -2.088551588819418 -1.729252320381103 -0.9359076545788821 -0.4954341990195670 -0.2228946599179538 0.6167988866367664 -0.1830192303499486 0.04600367380181391 -1.276339891234007 4.741450121070983 0.6603120913306417 -1.059509677767553 
-0.8596458396775737 4.949594238649704 2.888651528950955 8.059101398708850 0.2480345416493813 3.012692579961438 1.575647462974851 1.707775345075841 0.7660445871026891 -2.485975667879239 -0.4482680815799320 4.757951009678882 0.1957477828074210 -1.109189267530049 
0.3790930947668118 -1.772417503229171 -2.120778424348226 -1.936100850971955 3.526770036847471 0.8751267598701691 -0.2021400551755306 -0.2596851700967996 -0.2513182348939066 1.756256038410446 -1.423392287782363 2.422920651544681 0.1331089271453199 1.883782983665383 
-1.531303505806221 0.3240156282650410 -0.2756670106874941 -1.206761238266967 1.283807153512756 0.2918640360822314 1.200549884429646 -1.954016058081724 -0.1683941637382964 1.949377577637787 0.3255921003199999 -2.228579885429456 -1.221240496274051 0.8178335094680802 
-0.4521312118532838 -0.5090414581656412 2.154365647055199 -6.833636319361045 0.4276683728092833 -0.5591511749761073 0.07100549457982942 0.6057495588600709 -0.5438837983405121 -0.5327754222866121 -0.8683952700868159 -5.122547559616526 -0.7507645514766269 -0.8383212371227031 
0.9294604167182251 -0.2963049291453074 1.061997463253380 5.608935024519620 1.050055654108373 0.2584170696168637 -2.969747460624514 1.277005474289444 -0.2970740860463573 1.718176213165538 -1.378896596412022 3.907742340161107 0.3638867834820856 -1.808534140452820 
0.04399114179132425 0.7067425186985338 3.435175790984281 4.884159251036500 3.338463958893803 4.509122601599742 1.921629454371769 3.163599512444364 1.424960404842687 5.374056294843546 1.112661201007156 2.073384017625520 4.388253849021058 2.058504607444072 
-1.768721329429029 0.1762375138697530 -0.2597612172041266 -2.834789650639822 1.117296419028065 -3.841776803105133 -0.3117988132691289 -0.5631994921373368 0.2192535743750127 1.290558150851456 0.9195284677247793 5.406035402384036 -1.175221438738891 0.6019693847112492 
0.09361982227950336 -0.6322781586366408 -0.1407954075482519 -1.403271886858035 1.524276635186966 -0.7261277036007701 -2.726927367141947 -0.2421437349497246 -0.2984170902223324 2.375736949944982 -1.477672099089859 -11.79907586511242 -0.5697036574520922 0.1095508000317153 
2.886210265213579 0.6433102400833011 -0.5193212839870050 -3.500388862627569 -0.6725791036929510 -2.171984266254994 -3.209220217197447 -2.093510668803466 -1.273508962252658 -2.950567031227561 -2.048060051499275 -7.085212162962788 0.4113033003223000 0.7481996315511494 
5.080002746108240 -7.898649756421057 -4.324648157640740 5.085195124826731 0.1503033372541293 0.7246100241639657 1.953876809800903 0.08971751742824625 -1.140731857115705 -0.9580188043237575 -1.043594595001483 -20.88422423828972 -5.185108778404056 -0.3760802569076700 
0.9412970090994609 0.1424399970705155 1.044405436768496 -3.516109250211695 2.083846536404542 -3.560521479598585 4.847836479125957 0.1241764937612237 -1.633488968666049 2.314926168646119 -3.045625211001854 -2.527502061855715 -2.892862978728066 0.5117077710080630 
